%YAML:1.0
---
opencv_ml_ann_mlp:
   format: 3
   layer_sizes: [ 324, 128, 64, 10 ]
   activation_function: SIGMOID_SYM
   f_param1: 6.6666666666666663e-01
   f_param2: 1.7159000000000000e+00
   min_val: -9.4999999999999996e-01
   max_val: 9.4999999999999996e-01
   min_val1: -9.7999999999999998e-01
   max_val1: 9.7999999999999998e-01
   training_params:
      train_method: BACKPROP
      dw_scale: 1.0000000000000000e-03
      moment_scale: 0.
      term_criteria:
         iterations: 100
   input_scale:
      - 2.3319205469812363e+01
      - -6.1494020083185486e-01
      - 2.4829963870830849e+01
      - -5.9959321375390628e-01
      - 1.7791923975602664e+01
      - -5.6948036708913463e-01
      - 2.4136746415244190e+01
      - -4.1412962343401971e-01
      - 1.4733896613811515e+01
      - -4.1968900529725361e-01
      - 4.9036627040607080e+01
      - -2.4939748755979313e-01
      - 4.8009864556278131e+01
      - -2.6203574229824206e-01
      - 5.7382019476770999e+01
      - -2.9356049063195805e-01
      - 2.7953502243920994e+01
      - -5.2588701126266746e-01
      - 1.0585039491802148e+01
      - -1.0907709508981849e+00
      - 8.8374694937531064e+00
      - -9.2508987837654388e-01
      - 8.3286837320153460e+00
      - -7.9749192266975844e-01
      - 1.3943427821677934e+01
      - -4.6451383467265644e-01
      - 1.0258590273707611e+01
      - -4.7666936666272552e-01
      - 2.1547564169676779e+01
      - -3.3664548651243376e-01
      - 2.0554937863000916e+01
      - -4.1074838317108670e-01
      - 2.2368334225137151e+01
      - -4.7814332356045691e-01
      - 1.3249427364696265e+01
      - -9.3904252175901037e-01
      - 7.2519030092807997e+00
      - -9.3691308507594750e-01
      - 7.3128521543583407e+00
      - -1.1986076529614378e+00
      - 7.1178730321411239e+00
      - -1.5580819221943050e+00
      - 8.6033307558814176e+00
      - -1.0310381763999568e+00
      - 7.5541366121316385e+00
      - -1.1273704507469853e+00
      - 1.3675956126095876e+01
      - -4.7470381300552461e-01
      - 1.4769257302947386e+01
      - -4.5326484722367316e-01
      - 1.5929167495739645e+01
      - -4.3026812104439388e-01
      - 8.4749321788692189e+00
      - -7.3113655826110546e-01
      - 6.4116174556012497e+00
      - -1.9299788095126476e+00
      - 5.8311404416657080e+00
      - -1.9203150404408711e+00
      - 6.0539891789253453e+00
      - -1.9656334504543329e+00
      - 6.4593256472800311e+00
      - -1.1590685786007293e+00
      - 6.6800817819132510e+00
      - -1.1708299404210323e+00
      - 9.9053225907018110e+00
      - -6.7262930056655013e-01
      - 9.6493372892897860e+00
      - -7.2904163490181106e-01
      - 9.1868425469721835e+00
      - -7.5119071433760154e-01
      - 6.6183103988481600e+00
      - -1.4984680753229223e+00
      - 1.1121020688866793e+01
      - -1.0991281256838372e+00
      - 1.1074642185494383e+01
      - -8.7376838128153445e-01
      - 1.1901734226779588e+01
      - -7.2730491885855253e-01
      - 1.8010133925276669e+01
      - -3.9836365106989158e-01
      - 1.0645418646219602e+01
      - -4.6363991740860855e-01
      - 1.8074815873356634e+01
      - -3.7189613454579051e-01
      - 1.6405831592186811e+01
      - -5.0488515515164101e-01
      - 1.8322039166360135e+01
      - -6.0000514793799753e-01
      - 1.2583652044885595e+01
      - -1.0036755036809220e+00
      - 1.0037712879280212e+01
      - -1.1249159215950537e+00
      - 1.0048737566005046e+01
      - -8.1530648070343625e-01
      - 9.7650126213737458e+00
      - -6.5021136422049830e-01
      - 1.6689646623679927e+01
      - -4.3978905878451702e-01
      - 1.2097969449103379e+01
      - -6.2991134388220860e-01
      - 2.1754294975346795e+01
      - -5.2834736134624216e-01
      - 1.4967522654303108e+01
      - -6.7403700451483484e-01
      - 1.5267277231195257e+01
      - -7.6096105913508960e-01
      - 1.1136662086031093e+01
      - -1.1214390845547531e+00
      - 8.0525049687746879e+00
      - -1.9036690042895370e+00
      - 8.1403942351135736e+00
      - -1.8796213266451594e+00
      - 8.3862683401606120e+00
      - -1.7905438582395146e+00
      - 8.4246992656074191e+00
      - -9.1790393583282959e-01
      - 7.1563354410591158e+00
      - -1.0453056124042703e+00
      - 9.6565779428861021e+00
      - -7.4918436346386053e-01
      - 8.6759595898242985e+00
      - -8.4426084050693739e-01
      - 8.6903153889574867e+00
      - -8.6093891556220026e-01
      - 7.8595294259029007e+00
      - -1.5071552459035498e+00
      - 7.6780513271386113e+00
      - -1.8599883170586466e+00
      - 6.7996434161872132e+00
      - -1.4927209644375090e+00
      - 6.7389861577961456e+00
      - -1.3117384658346243e+00
      - 8.1333823047493485e+00
      - -9.1401800085505958e-01
      - 7.6536148036627587e+00
      - -1.3330518933020084e+00
      - 9.0020039667719765e+00
      - -9.5969985120207879e-01
      - 8.3130982296680394e+00
      - -1.1151318310809102e+00
      - 8.5731431715640074e+00
      - -1.1268602679854802e+00
      - 7.9034763353478361e+00
      - -1.7138325748389744e+00
      - 1.1394488448995913e+01
      - -1.1049141028022338e+00
      - 1.3807484471688884e+01
      - -7.1644523266654014e-01
      - 1.3270996258396069e+01
      - -5.7169385185850119e-01
      - 1.9780725125772030e+01
      - -4.2388971414845761e-01
      - 9.5777154387123797e+00
      - -6.2765009823103857e-01
      - 1.3511394255909561e+01
      - -5.8593747059194612e-01
      - 9.6343363844089538e+00
      - -7.9203505708697564e-01
      - 1.1224422023838988e+01
      - -8.5821815310332261e-01
      - 1.0641762062197826e+01
      - -1.1287447689629337e+00
      - 1.6831629389541519e+01
      - -8.8790230918449919e-01
      - 1.9221721256824694e+01
      - -4.7707005550299386e-01
      - 1.8014964299422097e+01
      - -3.8416112209951447e-01
      - 2.7980867345874444e+01
      - -3.2886190628773376e-01
      - 1.1010862050540538e+01
      - -6.2433903627693588e-01
      - 1.5658835930609271e+01
      - -5.6046840958798438e-01
      - 1.0810599992988164e+01
      - -7.5481533041107962e-01
      - 1.5144345645760948e+01
      - -7.9145164908996013e-01
      - 1.5738950579180953e+01
      - -9.7726268748940015e-01
      - 7.6295227786960993e+00
      - -1.6711056280292322e+00
      - 7.0922845096502591e+00
      - -1.2611304800770444e+00
      - 7.6097591581030368e+00
      - -1.1905532094055225e+00
      - 8.3862980162583067e+00
      - -9.1670749190948808e-01
      - 6.7216246254331908e+00
      - -1.3973836581027823e+00
      - 7.1796472846093247e+00
      - -1.0765114060716861e+00
      - 6.9792458215917081e+00
      - -1.2732189988047620e+00
      - 7.4530246178662063e+00
      - -1.1574146320169658e+00
      - 7.6218557898496799e+00
      - -1.5531626667695353e+00
      - 6.5130035639732142e+00
      - -1.1543665778934833e+00
      - 6.6756457371983666e+00
      - -8.1166446676414017e-01
      - 7.2223683941828742e+00
      - -8.5285323438916893e-01
      - 9.4095736982140945e+00
      - -7.8841057125422032e-01
      - 8.3683404976577993e+00
      - -1.8261662030781409e+00
      - 8.4187246885584948e+00
      - -1.1051083570586546e+00
      - 7.6691253542127855e+00
      - -1.3665739781684181e+00
      - 8.0811590449209803e+00
      - -1.1810136360721013e+00
      - 6.9128933515997755e+00
      - -1.2951138253731604e+00
      - 1.1991373042988997e+01
      - -7.3984111943252195e-01
      - 1.0744698343251374e+01
      - -9.6485461879813172e-01
      - 9.2401205146381962e+00
      - -1.4233776790865771e+00
      - 1.0684414332296162e+01
      - -1.1355117434665354e+00
      - 8.7199785142838522e+00
      - -1.4555455547007692e+00
      - 1.4867330101846253e+01
      - -6.3622423656691696e-01
      - 1.5693451807531389e+01
      - -5.9226167598509949e-01
      - 2.2113400828041225e+01
      - -4.8098513578394353e-01
      - 1.4484361244536624e+01
      - -6.0465154193715109e-01
      - 8.6985142011449188e+00
      - -1.2954345182603892e+00
      - 8.3551232614659394e+00
      - -1.6281843671368070e+00
      - 8.7779023452809639e+00
      - -1.9516512957481724e+00
      - 8.3398004346242232e+00
      - -1.2499275219625348e+00
      - 7.7792916123302982e+00
      - -1.3377733182419691e+00
      - 1.1891284060019569e+01
      - -7.4775717779444928e-01
      - 1.2626840706639006e+01
      - -7.4669035754138857e-01
      - 1.4336649776460831e+01
      - -6.8034777561889959e-01
      - 9.9749538787148140e+00
      - -1.0137001761313891e+00
      - 9.4310909054191541e+00
      - -7.9582352131407508e-01
      - 8.4071621649122505e+00
      - -8.0311230831899516e-01
      - 8.2156060434351357e+00
      - -1.1668791932798763e+00
      - 9.5768684038105274e+00
      - -1.0886155746581572e+00
      - 9.9119817158321109e+00
      - -2.2320622010834739e+00
      - 1.1340902529700120e+01
      - -9.5998274498170910e-01
      - 1.0214925594202498e+01
      - -1.0349238398909157e+00
      - 1.3506183007409511e+01
      - -8.3536047626138155e-01
      - 1.1214510813810435e+01
      - -8.2330050584055581e-01
      - 8.5903418397568849e+00
      - -1.5184105697100831e+00
      - 8.1160992050811185e+00
      - -1.5790988965748911e+00
      - 8.1813756905487853e+00
      - -1.7628571058079288e+00
      - 8.0832174548512832e+00
      - -1.2476139598763596e+00
      - 8.1008602775404714e+00
      - -1.6579344762912755e+00
      - 9.9088504826252297e+00
      - -1.0263016512649137e+00
      - 9.5314413394819724e+00
      - -1.1008449366890756e+00
      - 1.0448238411904258e+01
      - -9.7977426663573353e-01
      - 9.1551011388525314e+00
      - -1.3349146951210564e+00
      - 9.9606336566019049e+00
      - -1.4236451164138046e+00
      - 9.4617504691576784e+00
      - -1.6154036954106801e+00
      - 9.5149629713780950e+00
      - -1.7416346254905204e+00
      - 1.0574996052278708e+01
      - -1.1144289800471088e+00
      - 9.0193254449200353e+00
      - -1.2733335828575052e+00
      - 1.3987727161778578e+01
      - -8.0419341401776379e-01
      - 1.2690820234852669e+01
      - -7.6827776498812284e-01
      - 1.5004076474657001e+01
      - -7.2433046431726722e-01
      - 1.1373898486554229e+01
      - -1.1240311797619780e+00
      - 9.7937035019738303e+00
      - -1.4717590534214158e+00
      - 8.9516173141345146e+00
      - -1.4842245054387921e+00
      - 9.0490982582151904e+00
      - -1.5491624593951694e+00
      - 1.0243057082024457e+01
      - -1.0942941020437356e+00
      - 9.0501653371423245e+00
      - -1.4277203299909196e+00
      - 1.1284932448869602e+01
      - -9.1534643024568174e-01
      - 1.0780762551969604e+01
      - -9.3289523250193251e-01
      - 1.3052783790463042e+01
      - -8.5726857636962206e-01
      - 1.0799436215300110e+01
      - -1.2249444040257871e+00
      - 9.5066558278163953e+00
      - -1.6285334748562268e+00
      - 9.3600796056255859e+00
      - -1.7977839830568616e+00
      - 9.2925403162617464e+00
      - -1.7904812196624829e+00
      - 1.0429727319012454e+01
      - -1.1844184514843772e+00
      - 9.3786123348352834e+00
      - -1.4443197413502986e+00
      - 1.2059991126228581e+01
      - -8.8386444810227394e-01
      - 1.0584389457207701e+01
      - -9.2966457269578362e-01
      - 1.2311228239281869e+01
      - -8.8850142267904053e-01
      - 1.0137864647329875e+01
      - -1.3122835546972089e+00
      - 9.9973515526467480e+00
      - -1.9210896274226810e+00
      - 9.4215415566548231e+00
      - -1.9292543363467778e+00
      - 9.3485942501342052e+00
      - -1.9061122282495688e+00
      - 1.0007356749146648e+01
      - -1.1484066657576639e+00
      - 9.1666139213202023e+00
      - -1.3905084528949276e+00
      - 1.1358673661777049e+01
      - -8.6071875346871307e-01
      - 9.8032044695700460e+00
      - -8.8850270192819236e-01
      - 1.0732101324630325e+01
      - -8.9166181998120686e-01
      - 1.0230034888538936e+01
      - -1.5160151602343961e+00
      - 9.4055970399229558e+00
      - -1.3171722667102643e+00
      - 8.1488098391415811e+00
      - -1.2026046731240607e+00
      - 8.3192695055355479e+00
      - -1.3699131161007876e+00
      - 9.5161518649442751e+00
      - -1.0689133333858654e+00
      - 8.2163064382624800e+00
      - -1.4526591413777268e+00
      - 1.1589116469428383e+01
      - -9.6803424100435365e-01
      - 1.0813804563500488e+01
      - -9.6129026190397981e-01
      - 1.3358411023406779e+01
      - -8.3807040723985149e-01
      - 1.0897460868836687e+01
      - -1.1626035053661590e+00
      - 8.4722526275905334e+00
      - -9.3754637739856217e-01
      - 7.8477408235723658e+00
      - -8.6911967856880679e-01
      - 8.0839305054770687e+00
      - -1.1980111387771222e+00
      - 9.0546912577022010e+00
      - -1.0059723923256068e+00
      - 8.6966781939309801e+00
      - -1.7287155572067923e+00
      - 1.0705229776066551e+01
      - -8.9211752234606134e-01
      - 1.0433343239817043e+01
      - -9.8757118801722776e-01
      - 1.5044666267428688e+01
      - -8.5283402991344881e-01
      - 1.0602368417620115e+01
      - -9.4574486638868338e-01
      - 8.7970487043166905e+00
      - -1.5888608227160068e+00
      - 8.9840632673830427e+00
      - -1.8352004172461034e+00
      - 9.1297391052811587e+00
      - -1.9845194346834505e+00
      - 8.8041165434003474e+00
      - -1.1402485926446124e+00
      - 8.2357438165111176e+00
      - -1.2067676246439776e+00
      - 1.2785284659324905e+01
      - -7.3297560311183241e-01
      - 1.1112524824655742e+01
      - -7.6796199254085051e-01
      - 1.1088994711331525e+01
      - -7.6105642622016445e-01
      - 9.0217469339822465e+00
      - -1.2208555249191744e+00
      - 7.9588444010855373e+00
      - -9.9687958305804447e-01
      - 8.6783650046228065e+00
      - -1.3175645117090529e+00
      - 9.3278565665538782e+00
      - -1.8398226268260716e+00
      - 8.2993458814168122e+00
      - -1.1140285577644859e+00
      - 8.4030168117562027e+00
      - -1.4307695725241090e+00
      - 1.4365117342461208e+01
      - -6.3993423757726586e-01
      - 1.3275757811692085e+01
      - -6.5168864194577636e-01
      - 1.2313863787846488e+01
      - -5.4374854836304765e-01
      - 8.5338440183291411e+00
      - -7.8894345223513251e-01
      - 7.6069369906864752e+00
      - -1.0188879093227254e+00
      - 8.1253948340193425e+00
      - -7.3889464178675568e-01
      - 8.5235448699909924e+00
      - -8.5811249579515980e-01
      - 1.0398952690385519e+01
      - -8.2654144744411728e-01
      - 9.9706225242160809e+00
      - -2.1840053924533813e+00
      - 1.0754483737331675e+01
      - -1.0851321529884861e+00
      - 8.1910232898888022e+00
      - -1.3522838560715611e+00
      - 8.5997563897138143e+00
      - -1.1584671225841752e+00
      - 7.6331777290669178e+00
      - -1.1560689032782294e+00
      - 7.7621602479519041e+00
      - -1.8722250808877627e+00
      - 7.5933948854880686e+00
      - -1.5405122693051165e+00
      - 7.8610670525706112e+00
      - -1.4368375604551797e+00
      - 8.4214381718021176e+00
      - -9.8790173683586824e-01
      - 7.8077310326320974e+00
      - -1.4921920091174785e+00
      - 8.7471070939333817e+00
      - -1.0851226625424657e+00
      - 7.5803734572064263e+00
      - -1.3370511163320367e+00
      - 7.3085341883192561e+00
      - -1.2573965042585518e+00
      - 7.4566714116586397e+00
      - -1.7064332174208807e+00
      - 1.5757470751370864e+01
      - -9.5039576896061062e-01
      - 1.5395054812087382e+01
      - -4.9943314981708242e-01
      - 1.3545189987003720e+01
      - -4.4932412969518409e-01
      - 1.7306885587020041e+01
      - -3.9949972711778486e-01
      - 1.0138551291149167e+01
      - -7.6062783651972810e-01
      - 2.0884616876347188e+01
      - -6.1705524682935464e-01
      - 1.3319281218576291e+01
      - -8.3634496438715289e-01
      - 1.6278527956796903e+01
      - -8.9263206357392122e-01
      - 1.6181853444015474e+01
      - -1.1407906225190765e+00
      - 9.5032433500961293e+00
      - -1.4675386743870524e+00
      - 9.2531565231795643e+00
      - -8.8963781629471139e-01
      - 9.6857338262770654e+00
      - -7.1372765920461811e-01
      - 1.2109320484585764e+01
      - -4.7495046479910241e-01
      - 8.8280036481771518e+00
      - -7.0563509479180608e-01
      - 1.3268495294445875e+01
      - -6.0738688810027996e-01
      - 9.5523855587094104e+00
      - -8.6618513741171577e-01
      - 9.6380320088127682e+00
      - -9.4448813921043662e-01
      - 9.5288679308667739e+00
      - -1.4630328715029794e+00
      - 7.3877801468513180e+00
      - -1.7445111600006513e+00
      - 6.9816238122152026e+00
      - -1.5161973740554147e+00
      - 7.2371819915634719e+00
      - -1.3275021897981767e+00
      - 9.8339933678493505e+00
      - -8.3485284957789330e-01
      - 9.0645045323849640e+00
      - -1.0927783989153788e+00
      - 1.2431711443924236e+01
      - -8.4421702738812610e-01
      - 9.1270906408231784e+00
      - -1.0230574118813163e+00
      - 9.4099080493997587e+00
      - -1.0895839477603506e+00
      - 7.7876978363682010e+00
      - -1.6037012437059985e+00
      - 8.7878525834225645e+00
      - -2.2689927179891969e+00
      - 8.4526762062895990e+00
      - -2.0644069743010611e+00
      - 8.2752094508680241e+00
      - -1.6884385525573447e+00
      - 1.0720230121387825e+01
      - -8.4542608402704544e-01
      - 9.2711929089904714e+00
      - -9.5852908171506335e-01
      - 1.0559292629229905e+01
      - -6.9870169564929197e-01
      - 7.8257708548511378e+00
      - -8.5040405469295066e-01
      - 7.6155121971816797e+00
      - -9.4779748096847183e-01
      - 8.0124917562219213e+00
      - -1.7272562228091435e+00
      - 9.6973144500494257e+00
      - -1.3039372353734429e+00
      - 8.6975697722383263e+00
      - -9.3940822412272917e-01
      - 9.1174730821913936e+00
      - -7.2006327808117387e-01
      - 1.4087891297541255e+01
      - -4.2013813919153070e-01
      - 1.1808051990712432e+01
      - -5.4142767435728723e-01
      - 2.2611707495837553e+01
      - -4.9997934063181937e-01
      - 1.3782379801134681e+01
      - -6.9345898196503764e-01
      - 1.3138675053212484e+01
      - -7.8704446517273396e-01
      - 1.0857500469763368e+01
      - -1.2281463090999509e+00
      - 9.5982574895844142e+00
      - -1.2906920862259161e+00
      - 9.8848317184534888e+00
      - -1.0252766901886101e+00
      - 1.0470368317962372e+01
      - -8.2403076819927545e-01
      - 1.6879348153760148e+01
      - -4.2883211676649402e-01
      - 1.2426681691662582e+01
      - -4.6760904228448719e-01
      - 1.8144463186142374e+01
      - -4.0874668152819871e-01
      - 1.1604030651143457e+01
      - -5.9184659519703886e-01
      - 1.1062257768322736e+01
      - -7.0340121115243259e-01
      - 9.6420787610463190e+00
      - -1.1355577329648396e+00
      - 7.2393130385274977e+00
      - -2.1359651199783576e+00
      - 6.7039239603477965e+00
      - -2.0361197076240098e+00
      - 6.3969199046140748e+00
      - -1.7759822171716078e+00
      - 7.5257274953811200e+00
      - -9.4637792449052349e-01
      - 7.9940621330938395e+00
      - -8.9764225386394170e-01
      - 1.2913697049707785e+01
      - -5.5512557711037336e-01
      - 9.6212566817589771e+00
      - -7.2780702327783708e-01
      - 8.3422621934264107e+00
      - -8.3972339676429597e-01
      - 7.2095958639285440e+00
      - -1.6772396268836887e+00
      - 6.3874123560500946e+00
      - -1.1983211976922730e+00
      - 7.0739575601092817e+00
      - -1.5586532452940984e+00
      - 7.5375212236577767e+00
      - -1.6975482595773475e+00
      - 8.5294912331927932e+00
      - -1.0088644820942763e+00
      - 8.6245758696047528e+00
      - -1.1041229790075866e+00
      - 1.7200732594228334e+01
      - -4.1885989808196761e-01
      - 1.3424350314614808e+01
      - -4.4944997932731562e-01
      - 1.0960997609955502e+01
      - -4.8600675695266032e-01
      - 6.9174908718527064e+00
      - -9.1653733475324817e-01
      - 9.7404769205948210e+00
      - -1.2342266981372632e+00
      - 8.2737103735032242e+00
      - -9.7232381793681133e-01
      - 7.9178121264342032e+00
      - -8.4013145710247283e-01
      - 1.2210389362868536e+01
      - -4.9663014775480785e-01
      - 1.0487853891742944e+01
      - -4.5386487120594254e-01
      - 1.8405770478916413e+01
      - -3.0305212537631177e-01
      - 1.5801443927334862e+01
      - -4.3778983074379557e-01
      - 1.5715823813016714e+01
      - -5.7082111443428107e-01
      - 1.1148405711544212e+01
      - -1.0641661390851789e+00
      - 1.4995251567157858e+01
      - -7.1465881662008668e-01
      - 1.5737875853501002e+01
      - -7.2713297315300074e-01
      - 1.1349479114603620e+01
      - -6.9087750462207975e-01
      - 1.8668911440887346e+01
      - -4.8144221490385131e-01
      - 1.3420252280674879e+01
      - -4.4499574961883265e-01
      - 3.0380277092740823e+01
      - -2.3000832993305681e-01
      - 2.3983980874012982e+01
      - -2.4895430676533128e-01
      - 2.5066465150298203e+01
      - -2.9285351118891867e-01
      - 1.5911730180356711e+01
      - -5.6515100818666608e-01
   output_scale:
      - 5.2631578947368418e-01
      - 4.9999999999999994e-01
      - 5.2631578947368418e-01
      - 4.9999999999999994e-01
      - 5.2631578947368418e-01
      - 4.9999999999999994e-01
      - 5.2631578947368418e-01
      - 4.9999999999999994e-01
      - 5.2631578947368418e-01
      - 4.9999999999999994e-01
      - 5.2631578947368418e-01
      - 4.9999999999999994e-01
      - 5.2631578947368418e-01
      - 4.9999999999999994e-01
      - 5.2631578947368418e-01
      - 4.9999999999999994e-01
      - 5.2631578947368418e-01
      - 4.9999999999999994e-01
      - 5.2631578947368418e-01
      - 4.9999999999999994e-01
   inv_output_scale:
      - 1.8999999999999999e+00
      - -9.4999999999999996e-01
      - 1.8999999999999999e+00
      - -9.4999999999999996e-01
      - 1.8999999999999999e+00
      - -9.4999999999999996e-01
      - 1.8999999999999999e+00
      - -9.4999999999999996e-01
      - 1.8999999999999999e+00
      - -9.4999999999999996e-01
      - 1.8999999999999999e+00
      - -9.4999999999999996e-01
      - 1.8999999999999999e+00
      - -9.4999999999999996e-01
      - 1.8999999999999999e+00
      - -9.4999999999999996e-01
      - 1.8999999999999999e+00
      - -9.4999999999999996e-01
      - 1.8999999999999999e+00
      - -9.4999999999999996e-01
   weights:
      -
         - -6.8914362748568991e-02
         - 4.7723293694347378e-02
         - -2.3323516160756910e-02
         - -1.1550962083340853e-02
         - 3.2323552967405945e-02
         - -3.3002593482556915e-02
         - 2.7121784752530291e-02
         - 6.0237387544899941e-02
         - 1.4400556659701157e-02
         - 1.3188074262617543e-02
         - -3.4146757981706834e-02
         - -2.6870323455458877e-02
         - -3.2148849214284618e-02
         - 1.9859850566712800e-02
         - 4.1342805831729230e-02
         - -6.3559633363575825e-03
         - 8.1454672642061729e-02
         - 3.7673437826186700e-02
         - -3.0061705509351638e-02
         - 3.5121122910834100e-02
         - 3.9844250643930601e-02
         - -5.2751037077710575e-02
         - -8.4490218821250129e-02
         - 1.6594744983926792e-02
         - 1.9005797942131954e-02
         - 2.7699809532770996e-02
         - 1.1359694023725877e-02
         - 4.7532418378494992e-02
         - -4.9996828238271618e-02
         - 2.6609060295429140e-02
         - -1.8155374777727783e-02
         - 1.8789549383662191e-02
         - 7.0453813671571596e-03
         - -3.7945283415740889e-02
         - 1.6145162915073584e-02
         - -1.7191375392855274e-03
         - 1.5038212616680655e-02
         - -3.6404857844508962e-02
         - -5.3308012074147433e-02
         - 1.2208790575720700e-03
         - -5.1614307482851424e-02
         - 9.9319740843897852e-04
         - -3.8351482280384909e-03
         - 1.1794284267584115e-02
         - 1.1971095981272389e-01
         - -4.3242527234484726e-02
         - -4.7978828203551975e-02
         - 4.3080073434028764e-03
         - -8.0142302900137248e-04
         - 3.2285296564985945e-02
         - 8.2410067302148698e-03
         - -7.3439311534941763e-03
         - -4.9764329702257255e-02
         - 6.0503529572602195e-02
         - -1.3648467286645476e-02
         - 6.0323122352690606e-02
         - -4.0255375690380735e-02
         - 3.9204072671377287e-02
         - -1.1232685649707201e-01
         - 6.5251952878127545e-02
         - 1.6924039990046033e-03
         - -1.6690558586521138e-02
         - 1.5166986562491960e-01
         - 3.7132187768157389e-02
         - 2.5777849446126808e-02
         - 6.9074092629447630e-03
         - 1.0283454358527098e-02
         - -3.7671852467055227e-02
         - 2.4774065726207540e-02
         - 4.4490101785735474e-02
         - 4.4650818570563959e-02
         - 2.1468794272803602e-02
         - -2.0506620856677638e-02
         - 2.2249096194416035e-02
         - -2.2138426602486411e-02
         - -5.4868284945981644e-02
         - 5.5108439527713868e-02
         - -2.6261491241828184e-02
         - -3.1445977520926947e-02
         - -5.8149946363170869e-02
         - -3.5847220980900631e-02
         - -1.7636120501586541e-02
         - -1.2299239039611368e-01
         - -5.6638552132059622e-02
         - 3.6080987324454812e-02
         - -1.3426707328681722e-02
         - 3.6026839256956635e-02
         - -1.7505623686823461e-02
         - -5.7818780146795944e-02
         - -6.2357525916834078e-02
         - 1.6861644417154840e-02
         - -2.6779730527382785e-02
         - -1.2016711616812553e-03
         - 6.0601848661907395e-03
         - 2.4557994133262858e-03
         - -4.0816367622284945e-02
         - -6.6626510545708456e-03
         - -3.6646521306318847e-02
         - -1.0406853564682714e-02
         - 6.4716557445371687e-03
         - 2.8033053077338468e-02
         - 2.8010929694210436e-02
         - -3.8543612390078169e-02
         - 2.1473048935794757e-03
         - -4.6021454302439549e-02
         - -5.1181069932644145e-02
         - -1.9729404935292637e-02
         - 6.3670611136308189e-02
         - 3.3012056015162300e-02
         - -3.0754703671486774e-02
         - 4.5326589013356858e-02
         - -1.3054671123254441e-01
         - 5.0934819562357826e-02
         - 6.0345379420690189e-02
         - -1.8807566517160975e-02
         - -3.4400689878621118e-02
         - 1.4956760912903502e-02
         - 3.8789605086168070e-03
         - -1.2110600600712851e-01
         - -3.3918166472829039e-02
         - -5.4244278096395246e-03
         - -1.5122805976276445e-02
         - 1.5061929187543863e-01
         - -2.8134782064117739e-02
         - -2.6788754058122526e-02
         - -1.9025441417657319e-03
         - 2.5315700031049413e-02
         - 1.2192083973450597e-02
         - -9.0102095637698887e-02
         - -2.0448402035327527e-02
         - 2.8647590098965954e-03
         - -3.2235543777093555e-02
         - 1.4598996873396249e-02
         - -4.1586278899062044e-02
         - 4.6169091975255448e-02
         - -3.8089864929209273e-02
         - -6.4470347024863631e-04
         - 8.1252421171705322e-02
         - -2.9860001817521662e-02
         - -6.8725142436948716e-02
         - -3.1487215987185221e-02
         - 2.1120957067356606e-02
         - 3.3515429020466780e-02
         - 1.4908023589814329e-02
         - 4.2010078299220037e-02
         - 2.3618810725967460e-02
         - 7.9859825915116842e-03
         - 2.1894967240588165e-02
         - 6.6350852807063026e-03
         - 4.8455979547556420e-02
         - -3.4279444621559914e-02
         - 2.0639430377207967e-02
         - 1.5383139251769986e-02
         - 3.4465597043917370e-02
         - 5.3471760186887950e-02
         - -1.8927023395317970e-02
         - -5.9053260076877973e-02
         - 1.7135137811367010e-02
         - -6.6324970226322499e-02
         - -2.4493440428215975e-02
         - 4.9658315625037780e-02
         - -4.7241378994775346e-02
         - 5.4062692543604678e-02
         - 3.1727288810598483e-02
         - -1.7143156729857022e-02
         - -4.2804141117602598e-02
         - 6.7891986153984073e-03
         - 1.1049578848202190e-02
         - -6.6239760808580628e-02
         - -7.2701992346796959e-02
         - -2.5280547411612956e-03
         - -1.9443958541292411e-02
         - 5.8251090641327524e-02
         - -3.2958651657189773e-02
         - 3.9469590241279096e-03
         - -2.6632043424326363e-02
         - 6.4637632556256630e-03
         - -2.1267561803794941e-02
         - -5.2515278383685214e-02
         - 6.4237259259636997e-02
         - -5.8920802470278436e-02
         - -9.5682870518241177e-04
         - -1.9980937804582759e-02
         - 4.3652797763630527e-02
         - -4.9953410095321525e-02
         - 4.6379952866231679e-02
         - -1.2670486693810842e-01
         - 5.8869595690651359e-02
         - 2.9369457875785456e-02
         - -2.2255173380625909e-02
         - 1.5638355149836944e-01
         - -3.3111371239014628e-02
         - 3.5086293263574451e-02
         - -1.4372271591870449e-02
         - 4.3104901834737251e-03
         - -7.4813657503706140e-03
         - -1.9228576285992751e-02
         - 2.1466358457960879e-02
         - 5.2786467645544635e-02
         - 2.3547002267851200e-02
         - -4.0687538651754786e-03
         - 2.2383880337243863e-02
         - -5.4334290549004946e-02
         - 3.1030757407273648e-02
         - -7.4819996977075962e-02
         - -7.5449871704546867e-02
         - -2.3672681667762985e-02
         - 1.0690737657027376e-01
         - -2.4905964998389207e-02
         - 3.7311004058959631e-04
         - -1.3422849547641694e-01
         - -8.5802425273305463e-02
         - 3.6650967697150733e-02
         - -2.9216670045230864e-02
         - 2.8521211260275563e-02
         - 1.9538759470939152e-02
         - -1.1662846606419143e-02
         - -6.8389440006280999e-02
         - 2.9267662232152641e-02
         - -6.4535723518067078e-04
         - -1.3471782090179776e-01
         - -1.5998656197912221e-02
         - -9.1856821251819210e-02
         - -2.2119577895114314e-02
         - -2.7965422140623294e-03
         - -4.5070602004048020e-02
         - 1.7536308534079142e-02
         - 4.4250280657203246e-02
         - -5.2956970722398147e-02
         - 9.2424576251599639e-04
         - -5.0983076083340198e-02
         - -1.0982395596192175e-01
         - 5.1584362294926659e-03
         - -7.1395639202642150e-02
         - 9.1266126815015437e-03
         - 6.8367422524549554e-02
         - 6.0798739361016534e-02
         - -1.2727839429240873e-01
         - 1.0549557585163166e-03
         - -9.1839822144013233e-03
         - 9.2145863671525927e-02
         - -2.1312245100603727e-02
         - -2.3144356993854052e-02
         - 1.1212825454534085e-02
         - 2.7603568426955213e-03
         - 2.5047136189084714e-02
         - 2.8313551699206917e-02
         - -4.3179974698704895e-02
         - 5.0624116194368650e-02
         - -8.6625194892413493e-02
         - 6.3486252942427282e-02
         - -2.4784229408908884e-02
         - -3.1289216146263066e-02
         - -6.6755091978509288e-03
         - 1.9717591115977998e-02
         - 5.8337323667740394e-02
         - -1.4591865549821987e-02
         - -4.3112022713370041e-01
         - 5.4582718486639474e-02
         - 3.7722815023717494e-03
         - 1.7880528067298146e-02
         - -5.2750305994027358e-02
         - -1.0336115936714566e-01
         - -9.3290573830013990e-02
         - -4.4660113932639918e-02
         - 2.3891625246345244e-01
         - 7.0265371827674450e-02
         - -5.4179865833495086e-02
         - 7.6082837793193352e-03
         - -1.3884533836991553e-01
         - -5.7823380462210194e-02
         - 8.3280404704480157e-02
         - -2.7251121383023227e-02
         - 4.4917796134946460e-02
         - 7.0766380445225043e-03
         - 6.1245725832425831e-02
         - -1.2147892908530387e-02
         - 1.3027359968866009e-01
         - -1.1452602915556284e-01
         - -3.1870654936088147e-04
         - -1.4775288370208103e-02
         - -8.5577338934173398e-03
         - 9.3761175895705734e-02
         - -5.7275083271045295e-02
         - -2.2881570430905121e-02
         - 3.8269398916958700e-02
         - -5.5503462002038116e-02
         - -3.8390566722181323e-02
         - 9.4773778356659469e-02
         - 3.1032389988555977e-02
         - -6.8942690194849832e-02
         - 1.5039383648400812e-02
         - -3.8319251407191827e-02
         - -3.1243885512347077e-02
         - 2.7312321869917132e-02
         - 2.9149978747856416e-02
         - -2.4354491579107108e-02
         - -5.3321157485418540e-02
         - -2.2698473947620066e-02
         - 1.7338937876338737e-03
         - -1.0562385296465418e-01
         - -1.2989107712383062e-02
         - -4.2438421001601079e-03
         - -2.0076031292178279e-02
         - -5.8436799602508298e-02
         - -2.1927861773624331e-02
         - -4.9080438706561015e-02
         - 7.9588709094914278e-02
         - -3.6214279160048930e-03
         - 2.3359730687454418e-02
         - -5.4928625459550288e-02
         - 7.0648934338473343e-02
         - -9.7236339045544892e-02
         - 4.9374958010480870e-02
         - -2.2706596873933815e-01
         - 1.1622867347421144e-01
         - 3.3279818222893762e-02
         - -2.2837823075343294e-02
         - 8.7298529263004090e-02
         - -7.3809643092813876e-02
         - -1.6318537452772962e-02
         - -2.7622336034604265e-02
         - 3.6817519514948084e-02
         - -7.1944856053230685e-02
         - 3.7779407612750244e-03
         - -3.4098331803850850e-02
         - 9.6945008502488331e-03
         - 7.6490657117565539e-03
         - -4.0732697713132197e-02
         - 6.4105777660212845e-02
         - 2.7946828734243208e-02
         - 1.0984228604994184e-01
         - -2.4114244003087626e-01
         - -6.5013572721046270e-02
         - -4.3232080443364419e-03
         - 1.1931940502373861e-01
         - -2.2917595987462194e-02
         - -1.7726703426377759e-02
         - -2.1662452013572578e-01
         - -4.0038794169082265e-02
         - 2.4667349049722846e-02
         - -4.0644635857847340e-02
         - -3.7951159294514106e-02
         - -4.6740147904073088e-03
         - -4.4801469690210087e-02
         - 5.8607922414805119e-03
         - -7.7728984996637751e-03
         - 2.4440557923899386e-02
         - -2.0723762517121193e-02
         - -2.2476843370076986e-02
         - 7.9576427952056505e-03
         - 1.3141230767687531e-01
         - 2.2095906536246802e-02
         - -4.3187285909388085e-02
         - -7.8598737845756664e-03
         - 4.3927028189207719e-02
         - 2.7613592409750611e-02
         - 3.6990263241825756e-02
         - -3.8388271523518550e-03
         - -3.3486890738054731e-01
         - -7.1434399348683838e-03
         - -2.1839415385407826e-01
         - 1.4698074137741265e-02
         - -5.6481381881564048e-02
         - 4.5935741612536968e-02
         - -6.7650519483249891e-02
         - -3.4868906699513725e-03
         - 7.9719984153305376e-02
         - 3.6423544219666752e-02
         - 2.8535517542388301e-02
         - -4.9990149166545435e-02
         - 5.8326761226787212e-02
         - 2.3821157133985471e-02
         - -1.0482701884603958e-02
         - -5.2805385245014623e-02
         - -4.2589155345662280e-02
         - 3.7665703712493663e-02
         - -6.7402465358243749e-02
         - 6.8510772592265207e-02
         - -1.2189006662352463e-02
         - -5.8152456298318965e-02
         - 1.0124589002491996e-01
         - 3.5899606686989833e-05
         - 1.2988297754146733e-01
         - -2.2920566911108206e-02
         - -2.1605327236748789e-01
         - 2.3899223558645991e-02
         - -1.2457059198501569e-02
         - -6.7075431812342705e-03
         - -9.8826770402230119e-03
         - -2.2189472376657575e-02
         - -4.1583055389337306e-02
         - 1.7886677679698423e-02
         - 8.9491108615030818e-02
         - 1.4813641960083257e-02
         - -5.4772132963030261e-02
         - -4.9171679224929529e-02
         - -2.4179897441976139e-02
         - 5.7392750141420854e-02
         - 8.0776096429097652e-02
         - 1.5837866480842521e-02
         - 2.0766907076612287e-02
         - -5.1345439293245927e-02
         - 7.9618028173654515e-02
         - -1.2633155025776823e-02
         - 5.4272587436185515e-02
         - -1.2784092030406775e-02
         - -1.7943598111267855e-03
         - -4.2309385648790623e-02
         - -1.9199584983706820e-02
         - 3.8756572755151417e-02
         - -2.8888393009635972e-03
         - 5.3315577238683340e-03
         - 4.9842635445468374e-03
         - -9.4459098919794413e-02
         - -3.5814259908468350e-02
         - 3.0720954264540593e-02
         - 3.8580647608544294e-02
         - 3.0797015383462668e-02
         - -1.6892344299037885e-02
         - 2.0744496860842888e-02
         - 1.2591068189809221e-02
         - -1.7475687508826915e-02
         - -1.5224004164270569e-02
         - -3.2674268091323240e-02
         - -2.6147336606197353e-02
         - -3.2207375804909677e-02
         - -1.5441358872770474e-02
         - 2.2784014472989070e-02
         - -1.1202892870471744e-02
         - -1.5473424169684870e-02
         - -1.0139405147648523e-02
         - -2.1465644743505582e-02
         - -6.1092483760917162e-03
         - 4.5898264924805719e-02
         - 3.7287876925402953e-02
         - 3.5014450252569794e-02
         - 4.9604664372350074e-02
         - -1.7856576292399073e-02
         - 4.6356404925109951e-02
         - -8.0851273221329515e-03
         - 7.7235397919376989e-02
         - -7.2550665273740031e-02
         - 9.3317752644649643e-02
         - -1.4580502659744985e-03
         - -8.5550309965563374e-03
         - 1.4553297069206153e-01
         - -8.1795898735381959e-03
         - 1.2525712862740011e-02
         - -7.3598033923337140e-03
         - 4.4604868788630757e-02
         - -1.2028708487668424e-01
         - -8.6855459100310985e-03
         - 2.5884370410924458e-02
         - 4.9456228415174379e-02
         - 1.9434250824576140e-02
         - -1.6028820731651947e-02
         - 3.2347428049960159e-02
         - 5.0668752999651984e-02
         - -2.7803585313813235e-02
         - 7.6903776298982138e-02
         - -3.8967020980598143e-03
         - -6.2130464281838604e-02
         - -6.8578795774474052e-02
         - -8.1074533697351684e-03
         - -4.0570571308920410e-02
         - -1.5439270144194384e-01
         - 1.3237689898415046e-02
         - 3.3380500257021530e-02
         - -2.0437125272669717e-02
         - -4.9842035913302787e-02
         - 4.1611569737038737e-02
         - -6.6936696428987835e-02
         - 2.8597443931664641e-02
         - 2.5746993380268632e-03
         - 1.2015701382057042e-02
         - 8.6109559320662971e-02
         - -2.9473713640295933e-02
         - -9.0248145013476569e-03
         - -2.2062878794443689e-02
         - 7.2765182828014967e-03
         - -2.0648937658355942e-02
         - 4.8064477309825458e-02
         - -2.1066648239319970e-02
         - 4.5822374378733854e-03
         - 5.8153846805558795e-02
         - -3.6470240730583747e-02
         - -1.4775212010723163e-01
         - -7.7875640573003202e-03
         - -1.0610054546600156e-01
         - -1.4788102858693180e-02
         - -4.2566666707695155e-02
         - -2.8675162251131092e-02
         - -8.4889936697254195e-03
         - 1.7643065333875007e-02
         - -8.3697377686322627e-02
         - 2.7431679895539914e-02
         - -3.3274209457715876e-03
         - -3.4705901514953761e-03
         - -1.0316369325296991e-02
         - 1.7975151394390050e-02
         - 3.5004762856998179e-04
         - -1.6588384196861386e-01
         - -2.3573904251487143e-02
         - 6.5133700784335696e-02
         - 6.0317658243079754e-02
         - 4.9875066182183452e-02
         - -5.0246540334839426e-02
         - -1.6174224861578899e-02
         - 5.4921702987355776e-02
         - 2.3310419913647878e-02
         - 6.4302852018632048e-02
         - 3.9414544275996902e-02
         - -3.1572899120505132e-01
         - 5.7640745692493278e-02
         - 7.4952305097039391e-03
         - 1.9455560812579625e-02
         - -5.5685255701035585e-03
         - -4.0743987780224047e-02
         - 6.4561314010127560e-02
         - -4.2991215854202423e-02
         - 1.9367272556146528e-01
         - 2.9370863928498199e-02
         - 7.0035325197517501e-03
         - 3.3710571886579326e-02
         - -5.0814386431267240e-02
         - -5.2680622492488671e-02
         - 8.0466429177332807e-02
         - -1.0669420520388584e-04
         - 1.5354919879856384e-02
         - 1.3452369377929833e-03
         - -7.6870769747939488e-03
         - 4.4467334195949816e-02
         - 4.2055831597960919e-02
         - -1.4888053972653564e-01
         - -2.8431754491492756e-02
         - 3.8628728053652597e-02
         - -7.6016737001544821e-02
         - 4.0486286705926022e-02
         - 1.9180380573165789e-02
         - 4.6611101447446519e-02
         - -1.9352233611268182e-02
         - -5.7352756049665873e-02
         - 4.2788801813167944e-02
         - -2.1901232442772683e-02
         - 2.7079149040607512e-03
         - -9.5558259099916026e-02
         - -1.1297123040388607e-02
         - 3.4041740416546132e-02
         - 5.6377365698028301e-02
         - 2.7663890726734937e-03
         - -2.6328147045321802e-02
         - 2.9007168086102805e-03
         - -1.0018955562226536e-02
         - -1.5558131512707882e-02
         - 1.1134791383777227e-02
         - -2.0944164969611465e-01
         - 9.9567613215262429e-03
         - -8.8719440272580441e-02
         - 2.6543979093811208e-02
         - -1.1213369140764502e-02
         - 3.9961968881167834e-02
         - 7.0350373356072318e-02
         - -8.0677761468769989e-03
         - 2.8691912415126933e-02
         - 3.3570569019736374e-02
         - 3.9113585941581638e-03
         - 2.6156424679792387e-02
         - -3.2389797857739766e-02
         - 6.5308498188169195e-02
         - 6.1666202276878586e-02
         - -1.7278777871031638e-02
         - 4.3327203649899098e-03
         - -2.8570891105059174e-02
         - -3.9106097974178848e-02
         - 2.6878576776229537e-02
         - 4.0008306550773131e-03
         - -7.6614520863876295e-02
         - -6.1700007809856676e-02
         - -1.0563948237862743e-01
         - 4.4548700477485249e-02
         - 5.2157657142842664e-02
         - -1.6103141652436582e-02
         - 7.8205188588090593e-04
         - -8.0083054166413415e-03
         - -2.7806591079892837e-02
         - 1.8776994012258796e-02
         - 8.8595330719384441e-02
         - -1.1592534698514470e-01
         - -3.5236622336613878e-02
         - -1.9228813822122482e-02
         - -1.5463532363419283e-01
         - -2.1702716941061576e-02
         - -4.2430694839621717e-02
         - -4.1348854995642351e-02
         - 5.1972191180991077e-02
         - 2.5111285078019196e-02
         - -2.6011396573051383e-02
         - -8.2210469032491573e-02
         - -4.3923799273006749e-02
         - 8.6616531416979017e-03
         - 5.8911523270414254e-02
         - -3.2184723703647680e-02
         - -1.0674705935235044e-02
         - 7.1088212652077237e-02
         - -2.0135719721233635e-02
         - -2.8846939675902204e-02
         - -3.4408882353908939e-02
         - -1.4749963921683415e-02
         - -6.0318781929635306e-03
         - -5.6315903685665086e-03
         - 4.5051916067812108e-02
         - 2.2024496246830456e-02
         - 1.7693494642807594e-03
         - -2.5445141358949191e-02
         - -1.4081719196289876e-02
         - -4.2336816070908306e-02
         - 3.1635352646360138e-02
         - 5.4915612880683199e-03
         - -5.6926971920430669e-02
         - -2.1702508555589185e-02
         - -6.8211686542324432e-03
         - 5.4378001857277036e-03
         - 1.3902015226958986e-01
         - -1.0253573135776765e-01
         - -2.2581601988132763e-02
         - -3.8997587258522405e-02
         - -2.4961486093617501e-02
         - 7.7068716073146901e-02
         - -8.6054334847518173e-04
         - 8.2560212855536646e-03
         - -2.3678950480727611e-02
         - -5.1801619262866049e-02
         - 2.9905525231172687e-02
         - 8.7250948285656233e-03
         - -1.1599316316143533e-02
         - -8.8600022940587605e-03
         - 2.1116116001388588e-02
         - 2.4850472394875613e-02
         - -1.5644245698522564e-02
         - -6.5618601577862676e-03
         - -5.4283325554000755e-02
         - -5.0016728517909082e-03
         - -2.0717713835967801e-02
         - 1.9829287804144734e-02
         - -3.7665532212775278e-02
         - -1.0017064765477323e-02
         - 4.5584975862970271e-02
         - -1.9670096893118862e-02
         - 7.2196531670934788e-02
         - 4.6332839825151129e-02
         - -1.4510423437815287e-02
         - 8.3577404981798487e-03
         - 1.2471358079052889e-02
         - -5.2048127280340736e-03
         - -1.4997732562182534e-05
         - -1.1927894672640134e-02
         - 2.5722891907491471e-03
         - 2.5491945769412366e-02
         - -7.3314329632900403e-03
         - 2.1864869998621764e-02
         - 2.0655820210089899e-02
         - -8.1483806422457797e-02
         - -4.2194221510181299e-03
         - 7.7939659076234468e-03
         - 3.9159576343637668e-02
         - 3.8299221998124723e-02
         - -1.1789521107796751e-02
         - 5.0211447819607596e-02
         - 1.8541723673824558e-02
         - -5.0656593416981609e-02
         - 3.0387084650156118e-02
         - 4.0651788902261392e-02
         - -1.9721694660433258e-02
         - -8.9294418662738354e-03
         - -2.8570435424766605e-02
         - -1.2800381462633388e-02
         - -1.4367248897611472e-02
         - -1.2774012155955659e-02
         - -4.1267308026338316e-02
         - -6.9994601154348178e-03
         - -1.4884536229287008e-02
         - 1.4634951607026686e-02
         - 6.2136745445781238e-02
         - -9.7587968591531550e-03
         - -1.6128473643122081e-02
         - -3.3762431129849634e-02
         - 3.7256658546946569e-02
         - 1.7690185172030741e-02
         - 4.6255398453795516e-03
         - -2.6647887436868984e-02
         - 1.1117081674483449e-02
         - -1.1270868613359557e-02
         - 2.1488921085595119e-02
         - -3.7972253051750220e-02
         - -1.9747788560998448e-02
         - -1.9614128297084227e-02
         - -4.0128742065554954e-03
         - 5.3227187902373185e-02
         - -2.6489945997094652e-03
         - 2.0529145806894866e-02
         - 1.2570811346146080e-02
         - -6.6403521079660632e-02
         - 9.3006253539438030e-03
         - 3.0997534388310488e-02
         - 1.7391535315969597e-02
         - -6.1155080221233254e-02
         - 1.4702638474137053e-02
         - -2.1573254730375309e-02
         - 1.3683256091612457e-02
         - -1.7765413742755534e-03
         - -1.1062093203371731e-02
         - -1.6411962638183286e-02
         - -5.4578388470103378e-02
         - 9.7473635222849846e-03
         - 3.3738446475348093e-02
         - -3.6896864403327907e-02
         - 5.3182353856618986e-02
         - -4.4882937371125552e-02
         - -3.4299748151757993e-02
         - -2.4124584087623795e-02
         - 9.8285070141196427e-04
         - -1.3619830723585859e-02
         - -3.2455881042484973e-02
         - 2.2231225780687796e-02
         - -6.9842446523614959e-02
         - -3.6902966106931695e-02
         - -4.4456429839915365e-02
         - 1.9332631236966973e-02
         - 3.0778927475473904e-02
         - -1.6184193522809830e-02
         - 4.7203631335559640e-03
         - -6.4674827167792125e-03
         - -2.0931929585285640e-03
         - 7.6368841242656013e-03
         - -7.8878501116250943e-02
         - -3.0811134842938653e-03
         - -7.3682382510498034e-03
         - 2.0404129741030994e-02
         - 3.7294255761750196e-02
         - -4.4303122885367925e-02
         - -2.9563764994892276e-02
         - 1.6883069026814725e-02
         - 2.3509176858705051e-02
         - -5.4942362504880278e-02
         - -1.7281736982245017e-02
         - 4.8499781307822891e-02
         - 1.2281328947007036e-02
         - 7.5680342714219001e-02
         - -4.9106623016848053e-02
         - -3.2778676952627525e-02
         - -3.1889211170254408e-02
         - -5.1084260854641843e-02
         - -3.5361778851886523e-02
         - -4.4176302705494907e-04
         - 1.4819064904195293e-02
         - 1.5805337232290079e-02
         - 1.3829414554958938e-02
         - 6.7916209508359637e-02
         - -2.4460569967391060e-03
         - -1.0391881335362394e-02
         - -1.5449556160850130e-02
         - -2.0613380493643547e-02
         - 1.4558207524073890e-03
         - 1.6495425787445919e-02
         - -5.8919888025656633e-02
         - 5.0286412636999463e-02
         - 9.7226358267549686e-03
         - -2.5666443097630842e-02
         - 6.4886912360369198e-02
         - -2.9204633486492396e-03
         - 1.5828209005343982e-02
         - -3.8172416227115948e-03
         - -3.2725742987697690e-02
         - 3.9096750840609601e-03
         - 6.0925643520218370e-02
         - -4.5453134567456990e-02
         - -1.6976872675217369e-02
         - -1.5268219938163857e-02
         - -5.8742222120221187e-03
         - 4.1230800484197618e-02
         - 5.2587268448658749e-02
         - -1.6481585916584919e-02
         - 1.6761927429570566e-02
         - 5.4996924075500678e-02
         - 1.7868535214330641e-02
         - 3.1494084708673001e-02
         - -8.8120726651333744e-03
         - -1.7370517568822730e-02
         - -1.3295552976052489e-02
         - 3.1735479476080394e-02
         - -3.5212798686933412e-03
         - 5.6738187480914248e-02
         - -3.5032870384993031e-02
         - 7.0961181341780796e-02
         - -5.6619189718466710e-02
         - 5.3986935804980464e-02
         - 2.5303148278234887e-03
         - -1.7816241706320124e-02
         - 2.8114093965357682e-02
         - 1.1374633215208450e-02
         - -1.0381864921126671e-01
         - 8.1648523719196037e-02
         - -4.4762384609191332e-02
         - 1.2923047605088089e-02
         - 5.8792294050909528e-02
         - -6.7219825167932372e-03
         - -3.5828156840821704e-02
         - 1.2065036454139548e-02
         - 2.6273365686185716e-02
         - 8.9855543540342930e-03
         - -1.9702045527904069e-03
         - -3.8320675836144541e-05
         - -4.3420255675365380e-03
         - 2.4543782918608537e-02
         - -1.2260216988723198e-02
         - -2.9865136727451003e-02
         - 3.9856334346335936e-03
         - -2.5593086454357372e-02
         - -1.0505589578757848e-02
         - 5.8143475184051552e-02
         - -6.1047320063117253e-03
         - -3.6918384140671633e-02
         - -7.7861136027988949e-03
         - 3.8286313395359955e-02
         - -3.4934040523895780e-02
         - 1.0492995576902044e-01
         - -1.5719986083876734e-02
         - -8.2660542795104080e-03
         - 2.5983201634559479e-02
         - 6.5183319784297240e-03
         - 2.5053756924771926e-02
         - 2.8251376356502721e-02
         - -2.3976304020005734e-02
         - -6.1606417645493662e-02
         - 1.2445973860534253e-01
         - 1.2962243305457971e-02
         - -2.2516061655766903e-02
         - -4.0971403051542551e-02
         - -4.0262274373940636e-02
         - -3.2760154847687246e-02
         - -6.3339462400203383e-02
         - -1.1172271192328154e-03
         - -2.3541117133330253e-02
         - 7.4503749306801884e-02
         - -4.6082367469861794e-02
         - 1.4920061079232397e-02
         - 5.2212904367686552e-02
         - -3.5790658511646180e-02
         - 2.5101369217687984e-02
         - 6.1903201412405823e-02
         - 1.0004738485272184e-02
         - 1.1566138851988275e-02
         - -6.4516742598802815e-02
         - -1.0739212064634535e-02
         - -5.1253243040248884e-02
         - -2.1275075210935718e-02
         - 5.6716489610804111e-03
         - -3.5770734176269726e-02
         - 4.1873205601266700e-02
         - -1.7585537108635755e-02
         - 2.4338237663767612e-02
         - -5.5100533333051364e-02
         - 5.5143034621963780e-02
         - 1.8891236924676990e-02
         - -5.4787900920195261e-02
         - -4.2833174118204011e-02
         - -3.2139732687595013e-02
         - -3.3914651486111627e-02
         - -1.5258931970936987e-02
         - 7.6417380371246830e-03
         - -4.2400179085222367e-02
         - -3.5709490896913325e-02
         - 1.0282598143481388e-01
         - 5.2597857198560541e-02
         - -1.1620201837982711e-02
         - 8.0857990164180812e-02
         - 4.8515272421429681e-02
         - 2.3621567217436999e-02
         - -8.5362371875156384e-02
         - 7.8303099675170920e-02
         - 7.2018078032508694e-04
         - -1.6692704557033686e-02
         - 5.3607418563996131e-02
         - 4.1507653344614745e-02
         - 3.7542970243021390e-02
         - -9.1962739284845912e-02
         - 5.7254716374599217e-02
         - -5.5745944506824241e-02
         - 6.0916440179830292e-02
         - -1.1555039726291015e-02
         - -2.2947249855538733e-02
         - -2.4313924450975053e-02
         - -6.1663141512764662e-02
         - 3.3616367179782239e-02
         - -4.7521315077736798e-02
         - -2.9949125594005907e-02
         - -7.4111277341888146e-02
         - 3.0359141066772045e-02
         - 2.6832900920588372e-03
         - -5.0078562156697483e-03
         - -1.2323432950797531e-02
         - -2.2853308465492515e-02
         - 6.1279746174803515e-02
         - -5.1100236085879977e-02
         - 2.4101790160528165e-02
         - -6.7067155042762408e-03
         - -1.3236147593472164e-02
         - 4.1691074867248497e-02
         - -5.9517200282727684e-03
         - -7.1929399606880766e-03
         - 2.6188502860659688e-02
         - 6.4673992781212036e-03
         - 2.7636531797483700e-02
         - -2.0417048341754718e-02
         - -4.9388181308042393e-02
         - -7.2173216885125019e-03
         - 1.1600979204138734e-01
         - -5.1001214050606071e-02
         - -3.7342884093825156e-02
         - 4.2791446589141392e-02
         - -3.6076867659922622e-02
         - 7.7574451177804538e-02
         - 2.1303341746809659e-02
         - -6.7409536223042826e-02
         - 1.5158495235800868e-02
         - 4.2106928638424496e-02
         - 2.3381975176564006e-02
         - -3.9762183995738817e-02
         - -7.0455958142708483e-02
         - 7.5728565321831143e-02
         - -2.9822183218864397e-02
         - 3.5158389965903224e-02
         - 8.4953240345335176e-02
         - -8.6698943590953464e-03
         - -2.6164488292825316e-02
         - 1.3519879785493426e-02
         - -2.9031555036812425e-02
         - -2.2529509890010131e-02
         - 1.3667795394534626e-03
         - -3.2579306111739079e-02
         - -2.9539959036381180e-02
         - 1.9460376947621792e-02
         - 4.7129587236075365e-03
         - -5.9416878253170442e-02
         - 2.0889353081865902e-02
         - -3.8533920635478128e-02
         - -4.8693875127793183e-02
         - -2.8445363299703118e-02
         - -6.6394729191779399e-03
         - -7.8390671201745352e-03
         - -5.1797364465675415e-03
         - -2.5058847153328442e-02
         - -4.3937085849593459e-02
         - 5.5362108799242200e-02
         - 1.5583476062503792e-03
         - 1.0341326708149304e-03
         - -1.4773872504568963e-02
         - -8.3036542387810754e-03
         - 1.7632479192061169e-02
         - 1.7794490402131602e-02
         - 1.3584254446085639e-02
         - -5.0436945498557366e-02
         - 7.6553064556904291e-02
         - 2.4811205633674564e-02
         - -3.8959817080978475e-02
         - -2.1050852251913738e-02
         - -2.2545024345924567e-02
         - -3.6904900778943907e-02
         - -5.7218673986817861e-02
         - 1.4807912050951062e-02
         - 6.5885491251924874e-02
         - -3.1569829232004583e-02
         - 7.3541415570316238e-03
         - 3.1962545373860596e-03
         - 2.6636950110022570e-02
         - -2.6212177912377919e-02
         - 3.9868690134579443e-02
         - -1.4010499532291455e-04
         - -3.4196778526188958e-02
         - 6.4220578825678392e-03
         - -5.0300456998579643e-02
         - -3.8609206023843363e-03
         - -5.3820292000819205e-02
         - -1.5148257681162363e-02
         - 1.0409641680353403e-02
         - -3.6167182925806673e-03
         - 3.0863675479585271e-02
         - 1.7417887527179966e-02
         - 3.6384330203214431e-02
         - 2.3314996852181791e-02
         - 4.3081703747974903e-02
         - 4.5447183445974496e-02
         - -2.7626903664874251e-02
         - -6.1558545760971757e-02
         - 1.9100081402168421e-02
         - 1.1560604533938989e-02
         - 7.4007401397009646e-03
         - -4.4894622072405098e-02
         - 1.7296254173642885e-02
         - -3.6749271456578747e-02
         - 7.3512695646536327e-02
         - 2.2948330760861391e-02
         - 1.7196888987973207e-02
         - 8.1621137035783095e-02
         - 2.5287871756456474e-02
         - 2.6195419989257781e-02
         - -4.6238603474393639e-02
         - -9.9773059510628009e-02
         - -7.8556141103334701e-03
         - -1.4229508099514131e-03
         - -1.0290261180090243e-02
         - 3.7234584051820105e-02
         - -1.2505313070445093e-02
         - 5.4995637852183893e-02
         - 1.8592768572631183e-03
         - -5.6932221344105853e-02
         - -9.7061753120866491e-03
         - 8.4864682938591798e-02
         - -4.2418662240936905e-02
         - -3.3524287914687219e-03
         - 1.0369267734772883e-02
         - 2.4732305370777780e-02
         - 1.0306766754639277e-03
         - -9.0092524943403030e-02
         - 8.8117104081198341e-02
         - -2.7951883363923999e-02
         - -3.6652413377443960e-02
         - 6.5365829319719909e-03
         - 1.0366969148885637e-03
         - 3.8969676706232220e-02
         - 9.3303350931142198e-02
         - 7.7596331147696609e-03
         - -2.4820126350679816e-02
         - -2.6917100120488216e-02
         - -2.6428814204857213e-02
         - 6.7450065903723599e-02
         - 5.6103709832622084e-02
         - 2.8744736187123910e-02
         - 1.2528640222634647e-03
         - 6.5881384439138269e-02
         - 3.5651260044805635e-02
         - -3.0289642802073777e-02
         - 1.1142671655558357e-02
         - 5.1001652722334992e-02
         - -3.2315208537651081e-02
         - -4.8430474006551268e-02
         - 2.6652527821290059e-02
         - 6.3399626655006531e-03
         - 6.2783211658746618e-02
         - -9.0792926925124154e-02
         - 1.5417363839770191e-02
         - -2.3531653283722934e-02
         - 6.6160019985604668e-02
         - 1.5329845360559913e-02
         - 1.5545125516497314e-02
         - 1.4079017070356468e-02
         - -1.9707109263740100e-02
         - -5.7503813195172076e-04
         - -1.6887891834979636e-02
         - 9.4290487086558083e-03
         - 4.7269143084449801e-03
         - -5.4146744571236062e-02
         - 3.4369691075337779e-02
         - -4.5689091740099143e-02
         - 1.7049700887333451e-02
         - -2.0341137827403856e-02
         - 4.3827196017300500e-02
         - 9.8919417344748115e-02
         - -4.5007905448091218e-02
         - -5.2035216135533711e-02
         - -6.6795305557111337e-03
         - 2.9079119988525182e-02
         - 4.3477024496570225e-02
         - 2.3340425269512762e-03
         - -3.3592479678070046e-02
         - -2.9281183603352915e-02
         - 2.9335609079531769e-02
         - -1.7693787285202853e-02
         - 2.0756289064581667e-02
         - -2.5126997690172070e-02
         - 3.7518776489313899e-02
         - 2.0364631664776200e-02
         - 6.5826249429520658e-02
         - 6.0500369918046245e-03
         - 1.8867164449395963e-03
         - 8.0619597694747150e-02
         - 4.3176004416755974e-02
         - 1.8346114013313607e-02
         - 1.4732786386388858e-02
         - -4.7706702402255680e-03
         - -1.0073230420075024e-01
         - 4.3815023922206653e-02
         - 9.6007454986757230e-03
         - 5.2603673862363219e-02
         - 1.4491853210853653e-02
         - -4.7251828853808818e-02
         - -1.8655629734840716e-03
         - 3.8458266438271334e-02
         - -5.9464575511303949e-02
         - 1.0861470890538474e-01
         - -3.1473521376323060e-02
         - -2.6117259656290349e-02
         - -1.7346226788793509e-02
         - -1.2722012140047445e-02
         - 1.9367444548680082e-02
         - -7.4289957255894629e-02
         - -4.1997266668515484e-02
         - 7.3248645273213425e-02
         - -1.7862070702994347e-02
         - 3.4368353471993573e-02
         - -9.1570990988306348e-03
         - -2.8400744940415820e-02
         - -7.6620989395158212e-02
         - 5.6169648193649842e-03
         - -6.6091597598399139e-03
         - 9.3966302733239845e-03
         - 3.4919144116902598e-02
         - -5.5097837619018314e-03
         - -3.7372294965001045e-02
         - -7.8241245773646006e-03
         - -4.6903984712709949e-02
         - -2.1825245185761365e-02
         - -4.6166001024301592e-03
         - 1.3945171121018616e-02
         - -6.3981078610745507e-02
         - -5.8157262685010355e-02
         - 1.6468327469065536e-01
         - -7.2671640496196468e-02
         - -4.4388347951872568e-02
         - -2.7526434194903070e-03
         - 3.7402439532714507e-02
         - 3.0555804095516229e-02
         - -3.4254013276094009e-02
         - 3.4404138443584954e-02
         - -2.5033066036947549e-01
         - 5.1145769945399898e-02
         - 3.3294802739548129e-02
         - -1.2591062609294667e-02
         - 2.2634647071201223e-02
         - 8.0514570806177310e-03
         - -2.5653430323933527e-02
         - -3.5363882670796619e-02
         - -3.7342397463149504e-02
         - -4.1207230239242276e-02
         - 1.6293704767239417e-02
         - 7.3800930296438763e-02
         - -2.7768325234836504e-02
         - 5.2240669697279094e-03
         - -4.3142938531011282e-02
         - 5.1310798623266540e-02
         - 5.7134933065739052e-02
         - -4.6655975758351155e-02
         - 2.0975038504709750e-01
         - -1.3962881195265682e-02
         - 2.1807687837711322e-03
         - 1.6149555873967644e-02
         - 2.8650653999697219e-02
         - 3.3376395011804540e-02
         - 3.8604428710977266e-02
         - -1.4166303819822553e-02
         - 7.4477847477214731e-03
         - 6.7644361213994204e-03
         - -4.7227856572054840e-02
         - -6.7338988301623950e-02
         - -8.1156449990723994e-03
         - 7.8928894054955595e-02
         - -6.9205966819450793e-02
         - 5.5605310544887994e-02
         - 4.2522072478523687e-02
         - 9.6949810615185802e-03
         - 2.7074598375522053e-02
         - -6.5377683231889220e-03
         - -9.2193260404196037e-02
         - 6.3607351951943530e-03
         - 2.3490772433978079e-02
         - -1.1794468607117312e-02
         - -3.2568147504543954e-02
         - 8.6760953692767030e-03
         - 4.7369832732779317e-02
         - 1.0535309856207669e-02
         - -1.0282253728811225e-01
         - -2.5629933034305250e-02
         - -5.1794140781506407e-03
         - 4.3866660481344966e-02
         - -3.9785635476071758e-02
         - -2.7374056072089419e-02
         - -3.4757400132363167e-03
         - 3.7077727730931245e-03
         - -1.2672316775794290e-01
         - -7.7995653564660386e-03
         - -4.4979962164735807e-02
         - 4.0355478038591311e-02
         - 1.1358952220878055e-01
         - -1.1413108208670666e-02
         - -1.1092496832364252e-02
         - 2.5916113111742096e-02
         - -4.1360533192959827e-02
         - -1.5094011885996110e-03
         - -1.2593784524978580e-02
         - -9.4173585207199140e-03
         - 6.9209733964168520e-03
         - 3.9916673886406247e-02
         - 5.9577402675821879e-02
         - 2.8127019813170881e-02
         - 2.3243620027190059e-02
         - -7.0892218675097669e-03
         - 1.4907915697428904e-02
         - -3.6548504797891304e-02
         - 1.1742980388843671e-02
         - 4.6879956858440118e-02
         - -6.6891496914201723e-02
         - -6.9879856298528092e-03
         - -1.8624366560645294e-02
         - -4.2372753006018449e-02
         - -4.5159187866330469e-02
         - 9.7492892826837874e-03
         - -7.1176861743546455e-02
         - -4.0565049261390485e-02
         - 2.3222114642876915e-01
         - 3.5802510971324510e-02
         - 2.0687011266767245e-02
         - 1.3276054000843267e-02
         - -3.2896431983578983e-03
         - 4.5595011882370196e-02
         - 6.4119473045470637e-02
         - -9.1613166027031623e-02
         - 3.9181477217599278e-02
         - 5.5355625264236506e-02
         - 7.6712139746141411e-02
         - 1.6059603282995466e-02
         - -9.6417381724173717e-02
         - -2.9125701646262422e-02
         - -1.7809740698639769e-02
         - 1.9947800917170411e-01
         - -6.8474688951622287e-02
         - 8.1619783543991228e-02
         - -4.3390933447180917e-02
         - -6.2078403127030120e-03
         - -1.0854080964834639e-01
         - -1.3438052641691053e-02
         - -4.6933479784399849e-03
         - 3.7566814554087301e-02
         - 4.4148975437093823e-03
         - 4.2520414080225062e-03
         - -3.8393608166743524e-02
         - -1.6337193506724329e-02
         - 1.7419071167586720e-02
         - -2.3603476651076719e-02
         - 2.1525558768794250e-03
         - 9.4911534509856538e-03
         - 1.9651990874365737e-02
         - -3.7790659085741966e-02
         - 5.3684786421391482e-02
         - 3.4490903689121756e-02
         - 2.5684737662145457e-01
         - -4.9368025728389352e-02
         - 1.2810941390117203e-01
         - -3.7662603273366166e-02
         - 3.1869640482883918e-02
         - 3.7894856827384367e-02
         - -3.3367013025760294e-03
         - 3.2252036844966143e-02
         - 6.8564562627480216e-03
         - 7.1346260993770422e-02
         - 6.0920099451585885e-02
         - -7.0542811192268870e-03
         - -4.4697968343910481e-02
         - 4.0340840246433245e-02
         - 2.6868962840075686e-02
         - 8.1186257817451396e-02
         - -4.0646051365411662e-03
         - -3.2323314856887005e-02
         - -6.0467441690629275e-03
         - 5.0296475328278512e-03
         - -4.1894688932621448e-03
         - 1.8810582050998833e-02
         - -1.7444260832194169e-01
         - 8.7027679417013629e-03
         - -4.5963802985144291e-02
         - -1.6213171262233417e-02
         - 2.5744395271288623e-01
         - -1.0205194665581617e-02
         - -1.3365997689683371e-03
         - 2.9890452870607030e-03
         - 5.7932359565665004e-02
         - -3.3093437053773635e-02
         - 3.5712592125704830e-02
         - -4.0017442314851333e-02
         - 1.1747661291003715e-02
         - -7.8526752491241778e-03
         - -6.1600105971298502e-02
         - 1.2871823382178979e-01
         - 5.3673113930193139e-02
         - 7.8716506173211714e-02
         - -4.1950593403364572e-02
         - 8.9764907452163506e-03
         - 1.9570820506479673e-02
         - -2.4304741830584314e-02
         - -2.3559679870069274e-02
         - -1.9422804549913471e-02
         - -7.4370205531263597e-02
         - 7.5042490751390536e-02
         - -8.1987268570267308e-03
         - 1.9392525832594241e-02
         - 1.0253279943175433e-01
         - 4.2732881448951682e-02
         - -3.6336464313963639e-02
         - -2.0948657752090014e-02
         - -1.8841156760359145e-02
         - 4.4906101500956253e-02
         - 1.4177308103754220e-02
         - 1.6612284457834449e-02
         - -1.1350286848583338e-02
         - -4.2950505020128435e-03
         - 2.4051241657949762e-02
         - -4.2152878640896192e-03
         - -7.7249492837366041e-02
         - -2.3294819673309087e-02
         - -1.2292907618796188e-02
         - 6.8326667572109381e-02
         - -5.1560502141541223e-04
         - -2.5394813315029952e-02
         - -2.5673345979787307e-02
         - 3.9790680067812556e-02
         - -1.9776149999712452e-02
         - 3.1133097617799720e-02
         - 2.1901358697022748e-03
         - -3.5605292385583475e-04
         - -3.3503945355421512e-02
         - 1.2005396862229355e-02
         - 1.0737617075196947e-02
         - 6.4969490114064318e-02
         - 9.1497660015396959e-05
         - -1.4988566781120679e-02
         - -2.0600538627676451e-02
         - -2.1023574095388131e-02
         - 6.2669806819027965e-03
         - 9.2043307042719194e-02
         - -1.9337995228428075e-02
         - -4.1606282886223103e-02
         - 2.3939902111240086e-02
         - -8.7253867288438869e-02
         - 6.6506181532957037e-02
         - 2.2524476431741013e-02
         - 3.3864424876208207e-02
         - -3.9475903892392389e-02
         - 1.8549502751347738e-01
         - 1.8043803594824839e-02
         - 8.0112474716176510e-02
         - -4.7818583572027812e-03
         - -1.8994799175164528e-02
         - 1.0226137645696035e-02
         - 4.0913353884700424e-02
         - -4.5485165493919961e-02
         - 9.0979828850069487e-04
         - -2.5338953428695496e-03
         - 1.3680623172479364e-01
         - -3.0525228988409450e-02
         - -1.2189629221482046e-01
         - 6.6301674656297173e-03
         - 4.1335471961926745e-03
         - 1.6696002374993238e-01
         - -1.1466560433691754e-01
         - 3.7317407268480242e-02
         - -3.9786745142888519e-02
         - -5.0755676798099281e-02
         - -6.6898220309724782e-02
         - 1.1936713618259666e-02
         - 3.3763846796541264e-02
         - 4.4734875374257362e-02
         - 3.0370631626027687e-02
         - -7.1505062507596764e-02
         - -2.7942605658208542e-02
         - 1.8957136137172322e-02
         - -4.1087668615448721e-02
         - 2.5004854291115399e-02
         - -1.7247335823370265e-03
         - 3.8635063660772115e-02
         - -3.7362419100210813e-02
         - -2.6705574514986750e-02
         - 4.5164512232838169e-02
         - 1.0578672945304596e-01
         - 1.2377702592580347e-01
         - -2.5983265274930716e-03
         - 7.8390734988900132e-02
         - 3.6101727085573472e-02
         - 2.2658256018691234e-02
         - -4.4808277793953058e-03
         - 7.5474253600596494e-02
         - -9.8086081180363133e-03
         - -7.4509055494954540e-02
         - 2.7521044951579306e-02
         - 8.9934371655818704e-02
         - -5.0523391257762725e-03
         - 9.3862378990188164e-02
         - 2.5774218529705052e-02
         - 6.0366467473033873e-03
         - 3.9804320706946700e-02
         - 4.4500254040785600e-02
         - -1.0130082479035021e-01
         - -7.0404786030157041e-02
         - 1.2660153041651581e-01
         - 2.6614827242168470e-02
         - -1.0591758143206328e-02
         - -1.2334032409673201e-01
         - 6.7744293173066465e-03
         - -4.3216005588884027e-02
         - 2.5712205557674506e-02
         - 1.7129151753216806e-01
         - 4.2457763807505676e-02
         - -3.6881484757337810e-02
         - 1.4087661389605889e-02
         - 2.9074983292440050e-02
         - 2.0634555249676268e-02
         - 1.9021810025469533e-02
         - -5.9990154502900607e-02
         - -1.0650633888447914e-02
         - 3.1241935861782439e-02
         - -4.0560271151069895e-02
         - 1.3639570164307191e-01
         - -1.1402439681277780e-03
         - -1.6222161312419237e-01
         - -6.3182453554909951e-02
         - -2.9461280757418554e-02
         - 1.8854806065758904e-02
         - -5.4186780897981365e-03
         - -1.8187698139251845e-02
         - -3.6841220070269125e-02
         - -8.0941391338892596e-02
         - -1.8837103748940556e-02
         - 1.3815710880048002e-02
         - 3.1605823639582913e-03
         - 2.1072157668809665e-02
         - -2.2369358376426479e-02
         - 7.5010921809358547e-02
         - -7.3055810297130472e-02
         - -2.9273229380532652e-02
         - 6.3472060279510106e-02
         - 8.6322954162185699e-03
         - 8.9030896666155816e-03
         - 2.5988841242325464e-02
         - 1.2932535698143918e-02
         - 2.1145807575003037e-02
         - -1.5395323287260763e-02
         - -7.4818646942264116e-02
         - 3.6032255294580727e-02
         - 4.6028092751210212e-02
         - 7.3251361793546646e-02
         - 1.0216136467374497e-01
         - -3.1419247355712457e-02
         - -2.6043757308116314e-02
         - -7.0628799345863871e-02
         - -3.3997861156299318e-02
         - 2.1956339260567063e-02
         - -2.8741347363018224e-02
         - 7.6839952000577541e-02
         - 1.5762284648246930e-02
         - -9.2051484061882669e-02
         - -1.1067336245559972e-02
         - 6.4470078929523781e-03
         - -1.4935545980892539e-02
         - -4.1674617679622064e-02
         - -2.0468470568595722e-02
         - -3.7997626353924563e-02
         - 1.8159986338043711e-02
         - 9.6560909011555868e-02
         - 1.6528495489455196e-02
         - -8.0206341264881131e-02
         - 8.0216474172402821e-03
         - -2.9708709281536966e-01
         - 9.3293378126441437e-02
         - 1.2942878220123580e-02
         - 3.4239314789224810e-02
         - -6.3466063890828114e-03
         - 1.6948037705993232e-02
         - 1.2268834023952311e-03
         - 4.8003223210891059e-02
         - -1.6502657252211998e-02
         - -7.3901643560906533e-02
         - 9.0534553591460742e-03
         - -6.4825915647171162e-02
         - 4.3738613948043605e-02
         - 1.2311831818991160e-02
         - -1.6307164415184275e-02
         - 2.7912134475973058e-02
         - -2.3513833801791399e-02
         - -1.0798643247803276e-01
         - 2.2030029674376530e-02
         - -6.5685187790274754e-02
         - 7.5491519223175055e-02
         - -3.7792651216350351e-02
         - -1.7681187557843366e-02
         - -1.1459943182282047e-02
         - -4.0314854864464129e-02
         - -1.0610496703035177e-02
         - -2.9343495242590646e-02
         - 7.9911602367875409e-02
         - 1.1673071931654721e-02
         - 6.1370476671347672e-02
         - 1.8423423780021445e-02
         - 3.0424155819792846e-02
         - 1.0973829711082694e-01
         - -2.7025617903357718e-01
         - 1.8390852502171175e-02
         - 2.1010011048296887e-04
         - 2.0190549300242457e-03
         - -7.1322813178493455e-02
         - 1.3006568168021749e-02
         - -4.9461882279774230e-02
         - 8.2804220026790096e-02
         - 2.8543711230739208e-02
         - 2.6670064800035909e-02
         - 1.2695366143723085e-02
         - 4.5690570449474506e-02
         - -7.5985855932876642e-02
         - -4.2735315687107839e-02
         - 1.1826849180730709e-01
         - -1.3790425848847142e-02
         - -2.2493526824827803e-01
         - -1.8270131474541731e-02
         - 7.0739749709866212e-02
         - 2.1242866849729768e-02
         - -3.9503903594521640e-02
         - 1.9589798191408301e-02
         - 6.5764062332405185e-02
         - -2.8142409585911507e-02
         - -1.3441282824519434e-02
         - 1.2093901569182166e-02
         - -4.5156062686569666e-02
         - -1.6157045853659139e-03
         - -2.9827288054055996e-02
         - 2.4896366077267446e-02
         - -1.6664525144890519e-01
         - -1.3151620363609418e-02
         - -3.6530649853173870e-02
         - -1.9003691070158750e-02
         - 6.8708836982709950e-02
         - 4.2834410242890891e-02
         - -2.3174433434592127e-02
         - 3.3989660025398973e-02
         - 2.4210124062804692e-02
         - 2.4236123265152809e-03
         - 1.5143473481899471e-02
         - -3.5143498888145089e-03
         - 2.2243981628066262e-02
         - -6.3552030488188055e-02
         - 4.7547660651916887e-02
         - 6.2862323128727110e-02
         - -5.1767481816127912e-02
         - -1.0517159761378249e-01
         - -4.0255374701982413e-02
         - -3.8105730290453409e-02
         - -4.2994886321772027e-03
         - -4.2869869469255181e-02
         - 5.9169596981309122e-02
         - -1.8323188900711150e-03
         - 1.0572057784032064e-01
         - 1.5961324456226323e-02
         - -1.0913856399204142e-02
         - -5.3357542988648667e-03
         - 5.2825214874571771e-02
         - 1.1512038064688249e-01
         - 7.1699334570234807e-02
         - -2.2130129937424102e-02
         - -5.4335246289341714e-02
         - 7.6092062963336350e-03
         - 4.2127690245643279e-02
         - 7.0053287487271520e-04
         - 2.3841300426932666e-02
         - 6.3661480387858321e-02
         - 5.8660069451888522e-02
         - -7.2574371939828602e-02
         - -6.2056621322106716e-02
         - 2.2319782587745775e-02
         - -6.4829477989171838e-02
         - 6.8481961367394414e-02
         - 7.2950080910458362e-02
         - -4.0501243419276939e-02
         - -2.6359360329976343e-02
         - -1.4116304362977192e-01
         - -8.8173475108235290e-03
         - -4.5811923859139431e-02
         - -2.9590463892911072e-02
         - 9.1761267462388746e-02
         - 5.6075295008003116e-02
         - 3.7673452522768207e-02
         - 3.4344562170894884e-02
         - -1.5618239818392284e-02
         - -3.7937921763319830e-02
         - -2.6950998234263290e-02
         - 3.3210301031404751e-02
         - -2.3428642147590849e-02
         - -3.9849864822684910e-03
         - 6.3411325121607168e-03
         - -4.1702905643590429e-02
         - -1.8884492054848573e-02
         - -4.1221772987680358e-02
         - -1.8054255827516424e-01
         - 5.8412085749230055e-02
         - 2.6022093963828570e-03
         - -4.1850909296731242e-02
         - 2.1398024890800085e-02
         - 1.2096176435974976e-01
         - -1.3962519908345569e-02
         - 1.9609672317876834e-02
         - 5.9365231512876968e-02
         - -3.0920546093417760e-02
         - 5.0792255540500458e-02
         - -1.5628252968413942e-02
         - 6.5784924309138210e-02
         - 1.0630258944901635e-01
         - -7.3064280494539738e-02
         - 1.1074705945420184e-01
         - 7.1567221274813006e-03
         - 7.5063896755224735e-02
         - 9.2302883370847209e-03
         - -4.9531707848662461e-02
         - -6.1935441751693413e-03
         - -3.7721084547433031e-02
         - 2.2552530623859701e-02
         - 1.4263016412010422e-02
         - -5.1507431969420113e-02
         - 6.2996423001221810e-02
         - -4.5620118917339483e-02
         - 1.0836484737394923e-01
         - 2.7716767870802041e-02
         - 1.4934359999315030e-03
         - -7.7341919541902377e-03
         - 4.5916739408093814e-02
         - 1.5174280171996424e-01
         - -1.9892708399930281e-01
         - 2.3528686097624797e-02
         - 8.3554759014724635e-04
         - 1.6166838524033222e-02
         - -7.5352290100155511e-02
         - 9.1639000720056360e-02
         - -1.2562722735605275e-01
         - -1.0976578465061594e-02
         - 8.5482147828932639e-02
         - -1.0557412712055758e-02
         - -2.4121136698874595e-02
         - -1.8533104812373816e-02
         - -2.0063220176847526e-02
         - -1.7788043617071172e-02
         - 7.4712328800862440e-02
         - 2.6341441650509431e-02
         - -9.8450876018970665e-02
         - -5.1401182232527015e-02
         - -5.7060955922623710e-02
         - 7.9827275083742280e-02
         - -6.8325851651591010e-02
         - 2.9582820644585776e-02
         - 7.2998027887867340e-03
         - -3.0727106298397255e-02
         - 3.8786947620209704e-03
         - 8.5621914492615803e-02
         - -5.4441154454582606e-02
         - -4.2571399209420893e-02
         - -4.3960861978028044e-02
         - 8.5194691637087733e-02
         - -3.2039484156429245e-02
         - 3.0036570297694132e-02
         - -4.4097697112684693e-02
         - 5.7231687202781843e-02
         - -2.2245734183531257e-01
         - 4.3729913278703389e-02
         - 6.9770015632948336e-03
         - 6.9520959405354535e-02
         - -2.0409060287335371e-03
         - -1.8502030649331266e-01
         - -8.1463117344767508e-02
         - -3.9227310656791282e-02
         - 9.1726732879648165e-02
         - -4.3476684167453664e-02
         - 9.4351745942087575e-02
         - 4.7480721399250733e-02
         - -1.4101892602118196e-01
         - -6.4391262610344446e-02
         - 1.2003604806813778e-01
         - -6.9089325193226483e-02
         - 2.6328797405372022e-02
         - 1.2986522717642057e-02
         - -5.1320774039286315e-03
         - 8.3540396217228516e-02
         - 1.9323174282210337e-01
         - -8.5548026819144196e-02
         - -6.1103302064713379e-02
         - -3.3520514622444784e-02
         - 8.1598552728600268e-02
         - 1.4343599155203859e-01
         - -2.3617179931171128e-02
         - 3.4075994945230823e-02
         - 4.2245587727745601e-02
         - 6.9734144376080902e-03
         - 1.3823339453150738e-01
         - 5.3158513849712857e-03
         - 2.2727407927294371e-02
         - -1.2678260204581057e-01
         - 5.3846691900346678e-04
         - -1.6925886379052599e-02
         - 5.5604327443617430e-02
         - 4.5603629135025726e-02
         - -9.2731058191831708e-02
         - 4.9861393140870319e-02
         - -3.7455132202116152e-02
         - -1.3431675011304140e-02
         - 1.7965917852565263e-02
         - -2.5524590982871109e-01
         - 6.3788976535245684e-03
         - -4.8510783564667995e-02
         - 1.9515483164762721e-02
         - 4.8032376376009968e-02
         - 5.4284581416363109e-02
         - 1.6911245179934312e-01
         - -2.3705786293788455e-02
         - -1.3836639452081873e-02
         - -2.0330012395031755e-02
         - -3.3148804532181171e-02
         - 4.3357238015445498e-02
         - -1.1195729220053044e-01
         - -4.7464673525825056e-02
         - -3.3463334351931572e-02
         - -1.9059231909621988e-02
         - 9.9370543070995045e-03
         - -4.1865458081298122e-02
         - 2.0079020602054787e-02
         - 8.9325576724647957e-02
         - 4.3360014605701530e-04
         - -1.2688877266185591e-01
         - -6.2463838732623282e-02
         - -1.5693813570502896e-01
         - 5.9670246250504606e-02
         - 1.6355562381922293e-02
         - 1.7399969859125525e-02
         - -6.3937030421463661e-02
         - 4.4702991714559354e-02
         - -4.4761900084572037e-02
         - 6.4356536449773627e-02
         - 1.2674179657341994e-01
         - -3.0457089729653852e-01
         - 2.7081242500801034e-03
         - 3.6348062850616286e-02
         - 1.4490444054846122e-01
         - 5.3499505201115597e-03
         - -6.9303774863592373e-03
         - -2.3558222513415006e-01
         - 4.0487061163577732e-02
         - 9.1337036971391186e-02
         - 8.8268600851538462e-04
         - -5.1701164578584535e-02
         - 2.4244914612321932e-02
         - -1.2136008840294091e-02
         - 1.0390915265088280e-01
         - 1.8086391614703108e-02
         - -6.7644093907538880e-02
         - -2.0497756048677790e-02
         - 1.9125583749014415e-02
         - -5.3098086470454260e-03
         - 1.3415004760571500e-01
         - 2.7678962225884875e-02
         - -4.2118167494345805e-03
         - 3.1621126693903300e-03
         - -3.9856100250200803e-02
         - 9.0272985598961561e-02
         - -9.7674424601969123e-02
         - 2.2154655489005963e-02
         - -1.7045266477793117e-01
         - -9.0667691396696448e-02
         - -2.9333968465499485e-02
         - -4.7193773472195673e-02
         - 3.0448380496389798e-02
         - 3.9775036680352205e-02
         - -5.7254449834492800e-02
         - 1.1884528888831676e-04
         - 2.2519483285316452e-01
         - -1.0549617760443264e-01
         - -1.2484170575307953e-01
         - 4.4133667679649227e-02
         - 1.8378857747708248e-02
         - 6.6860929584361697e-02
         - -9.9185519297216463e-03
         - 1.2370852820121847e-02
         - -8.4826668947622329e-03
         - -4.6514695495101253e-02
         - -2.4396278609248454e-02
         - -1.1316245429745245e-01
         - 1.4701581400956926e-02
         - 4.8098929012640797e-02
         - 1.5760054281597705e-01
         - 4.0985677964429382e-02
         - -3.7826910590509827e-02
         - -2.9796040443815692e-02
         - -2.1155285901172616e-01
         - -1.7184502842710933e-02
         - -4.0311841373001235e-02
         - 2.4783943247414897e-02
         - 4.7670476805572320e-02
         - -4.4804818937363690e-02
         - -2.0610264237929957e-02
         - -5.2267846114561816e-03
         - -2.8653217150621021e-02
         - -1.8132312558589388e-02
         - 5.3871648905255781e-02
         - -6.3448587853895899e-02
         - 5.5918872765403941e-03
         - 1.2309243993550494e-01
         - 2.3691820384345613e-02
         - -3.1085900147516738e-02
         - -3.0556424689141188e-03
         - -2.6269032573126301e-02
         - -8.5192562717036097e-02
         - 5.1123445366642560e-02
         - 1.8399584512983308e-01
         - 2.7048553791744593e-02
         - -5.8036287717772791e-02
         - -8.8559130690070570e-03
         - 3.7101159990774776e-02
         - 6.0794184124990797e-02
         - -9.0906090148923195e-03
         - 3.1870058882874801e-02
         - -3.1228337043950661e-02
         - -4.8866658562566619e-02
         - 8.2914892266282028e-02
         - 9.8471842734032741e-03
         - 5.4908257816631369e-02
         - -8.4662767528090599e-02
         - 1.8525589005956604e-03
         - 2.8643960658478382e-02
         - 6.5745333109500106e-02
         - 3.5989947765887785e-02
         - -9.3213823327616074e-02
         - -1.8175969276768681e-02
         - 1.3153208234397288e-02
         - 2.8073900691186111e-02
         - 3.2575440456969376e-02
         - -4.1121749204542327e-02
         - 1.9339316453740363e-02
         - -2.4348090450504480e-02
         - 1.9174212791645547e-02
         - 4.9406282747696886e-02
         - 2.7911555109181155e-02
         - 9.7522454496950642e-02
         - -3.0561524553824392e-02
         - 3.3422816342065280e-02
         - -1.4836199537705980e-02
         - 1.0751610658253790e-02
         - 3.6571931817838528e-02
         - -9.0238685435764035e-02
         - -3.8926136206626563e-02
         - -2.2958184602636118e-02
         - -6.4904004547153490e-02
         - 3.1703850521748636e-02
         - -2.0680769619255013e-03
         - 6.6357686939461910e-02
         - 7.8855846811357169e-02
         - 2.5124447984415529e-02
         - -2.3080916233369587e-02
         - -6.2903817519243843e-02
         - -1.6744284374021265e-01
         - 4.4895250272422443e-02
         - 3.5341828779049345e-02
         - 1.1630194390086517e-02
         - -1.4185268630269256e-02
         - 2.5257342305878259e-02
         - -4.6050124198985812e-02
         - 2.8790689090621240e-03
         - 5.8618603620053056e-02
         - 1.6180317200056270e-02
         - 2.1000039065849789e-02
         - -3.2540729872394238e-02
         - -1.0427772329937688e-02
         - -1.1822798530513682e-02
         - 4.9924534902975569e-03
         - -1.7490887534290173e-01
         - -2.5548316637757997e-02
         - 6.7087294298849756e-02
         - -5.3165927766808648e-03
         - -1.3467126054782882e-02
         - 8.3705002809061069e-02
         - -1.9070793921553260e-02
         - 5.6325349191117237e-02
         - 3.8724385389769106e-02
         - -1.1696385516625475e-02
         - -3.3079576480026220e-02
         - 4.7377669221880204e-03
         - -7.0955662440994022e-02
         - 1.7562795459370836e-01
         - 3.3437304379662282e-02
         - -1.6093504118120223e-03
         - 3.9615779295581192e-04
         - 4.3968124835598683e-03
         - -4.5094253547724658e-03
         - 1.0108970366436818e-04
         - -7.0069824431224885e-03
         - 1.5072155572548135e-01
         - -5.8149440410684330e-02
         - 7.1187922062916853e-02
         - -3.3220090344427875e-03
         - 1.1807326779345023e-01
         - -2.4861834109124528e-02
         - -2.2594463784207101e-02
         - -2.4694340706685088e-02
         - 2.1456707372396994e-01
         - -8.8249920625296768e-02
         - -1.1450295425381331e-01
         - 2.6723930298346882e-02
         - 3.2158537476485484e-03
         - 2.5007831046865187e-02
         - 2.7113159509822255e-02
         - -4.8013518102794230e-02
         - 2.1316509706486800e-02
         - -1.9579411560879962e-02
         - 8.5654722277886897e-02
         - -6.5712696195690560e-03
         - 3.3346635504117081e-02
         - 2.7248302940106797e-02
         - 1.0709058365084606e-01
         - 5.4328822995853912e-02
         - -6.2191539069766523e-02
         - 1.4778328415006054e-03
         - -1.2422369653740060e-01
         - 1.3110606322633701e-02
         - -2.0749082510535585e-03
         - 7.8062876840591811e-03
         - 5.1329387971320702e-02
         - 1.0247234182565644e-02
         - 3.7167676609776767e-02
         - -1.6389469692433933e-02
         - 1.0566979455538424e-01
         - -2.7235930489491959e-02
         - 2.5772552218508233e-02
         - -7.5816464881381843e-02
         - -2.7803007989628217e-02
         - 1.0005904426544569e-01
         - -4.3873556363034770e-02
         - 1.8400924751982364e-02
         - 4.2326600613494178e-02
         - 2.0787292519292688e-02
         - -3.2417361582304703e-02
         - -2.7071125574910357e-02
         - 7.9895253732934268e-02
         - -3.6748398940838450e-02
         - -7.8774427432785871e-02
         - 3.9177416143945321e-02
         - -7.7285996201766918e-02
         - -7.0416161223407405e-03
         - -2.0330009452129111e-03
         - 3.7696031804962650e-02
         - -4.3840942012084633e-02
         - -1.5051536785714375e-02
         - 6.0303643477908245e-02
         - 7.4216681793340317e-02
         - -8.9155730844063044e-03
         - -2.2451343471459211e-02
         - -3.8581282565257939e-02
         - 2.0970600963584828e-03
         - 5.9440220424275575e-02
         - 2.7773435667391683e-02
         - -7.3858744717525673e-03
         - 2.3505194447030198e-02
         - 7.1586560312429395e-02
         - 1.6346490894116269e-02
         - 5.1133441691586139e-03
         - -1.3270237942642210e-02
         - -1.0176076396472123e-02
         - -5.9244388028677555e-03
         - -1.9334612583762321e-02
         - -1.8497379820416843e-02
         - -1.7400037498607863e-03
         - 5.1770656208029259e-02
         - -6.5045033910411925e-03
         - -2.4738469639569986e-02
         - 5.6978557901667401e-03
         - 2.2215682279072900e-03
         - 1.5224199748096277e-02
         - -6.3032929954876207e-02
         - -1.0348375978470206e-01
         - 1.1281209235647910e-01
         - -1.0913817249209068e-01
         - -1.5543294110855665e-03
         - 1.6120503562717534e-02
         - 1.0059302312717726e-01
         - 8.2975787526683997e-03
         - 1.5473303523889674e-02
         - -2.8959439644532937e-02
         - -3.2028526068226246e-02
         - 1.7687627135107326e-01
         - 4.2650778518849991e-02
         - -1.6941864863874001e-02
         - 1.9529194868879694e-02
         - 1.5564670963865466e-02
         - 3.9905198811187809e-03
         - -6.3937687726474879e-03
         - 1.6591858221934427e-02
         - 5.9707221232507893e-02
         - 4.5168957460912422e-02
         - -7.6084515296597930e-03
         - 3.0405243145886877e-03
         - 4.7956283980679061e-02
         - -4.6182627421856456e-02
         - -1.2987621808516295e-02
         - 2.7196781569272476e-02
         - -7.5508563010603769e-02
         - 3.9412169962832783e-02
         - 6.8304325143220598e-03
         - -4.7460620788660160e-02
         - 1.8151521234320869e-02
         - -2.3942716382335503e-02
         - 2.0070031945696822e-02
         - 3.6882400241560406e-02
         - 1.8360948886667113e-02
         - -2.0257240125485720e-03
         - -1.1537316714034077e-02
         - 1.7807903821547542e-03
         - 1.9493543188078685e-01
         - 2.0648697690721526e-02
         - -1.6639611621555955e-02
         - -1.5967540235881789e-02
         - -6.3921840576474764e-02
         - 3.5766895657833302e-02
         - 1.5739609318173788e-02
         - 2.2877686841249020e-02
         - 1.0469589898011591e-01
         - -4.0904181769716379e-02
         - 1.2809781169595860e-01
         - -3.8956551644295137e-02
         - 1.0274390543505944e-01
         - -5.0568024016832405e-03
         - 1.8589204909975149e-02
         - 8.5086416397305593e-03
         - 1.4622939926931833e-01
         - 4.8545185258100530e-03
         - -4.9181743623872613e-02
         - -2.3898265446478022e-04
         - 2.7831107357554737e-02
         - 7.2409746290588023e-03
         - -1.5057486323349647e-03
         - 4.5372833683020308e-03
         - 1.7138684029176753e-02
         - 4.3666540147539339e-02
         - -6.4202721756977553e-03
         - 1.1151436883028417e-03
         - 1.1085892332660652e-02
         - -1.5095059041829015e-02
         - 4.6910776886657103e-02
         - 4.1942209290264404e-02
         - -1.5472182680478416e-02
         - -1.3731972700535685e-02
         - -4.1764951926700211e-02
         - -4.5273969610893777e-02
         - 4.0315901118954403e-02
         - -1.7695471895932274e-02
         - 1.0573068787503814e-01
         - 1.6579987472304433e-01
         - 2.7007263223628272e-02
         - 2.7838188667750976e-02
         - -5.1256916161245891e-02
         - -4.2607057425930626e-03
         - -6.5584876376324028e-02
         - -4.3445060704777300e-02
         - 7.1647943454573856e-02
         - 1.6954654050067014e-01
         - -3.7083169142132135e-03
         - 4.6312430437600055e-02
         - 5.0178968313698127e-02
         - -4.7532181813141477e-02
         - 4.3639989158046941e-02
         - -1.0811961491368169e-02
         - 1.0662982788270242e-02
         - 2.6677575171353662e-02
         - -2.4103312735957717e-02
         - 8.3916106791113498e-02
         - -2.4305011139176474e-02
         - -6.8098939617252052e-02
         - 4.6973620372088701e-02
         - 6.4644532311796454e-02
         - -5.2577317200712105e-02
         - -4.3012526163441610e-02
         - 5.0178888436150156e-02
         - 5.8817535429379293e-02
         - 1.3516683433726018e-01
         - 8.9252686660659681e-03
         - -2.2672570303468215e-02
         - 6.8863200580752612e-03
         - 1.0128999259144597e-03
         - 1.1087818459574831e-02
         - 2.5777351731867775e-02
         - 1.2416384214921515e-02
         - 4.4353562270476772e-02
         - -9.3913028615034977e-03
         - -1.9157521416492976e-02
         - 1.3102958412099366e-01
         - 1.4218769438464054e-02
         - 1.8622179459832029e-02
         - -5.8884326908249657e-03
         - 2.3739826856032344e-02
         - -4.5327945155590445e-02
         - 3.7809339589912172e-02
         - 3.9554006527318906e-02
         - -6.1546839568163252e-02
         - 1.3537859137385731e-02
         - 2.5135099440055219e-02
         - -1.3180671796265921e-02
         - -2.2285501725220303e-02
         - -2.6675993553147655e-02
         - -2.4902238788978050e-03
         - 1.1408393255845846e-02
         - -1.8003322095341411e-02
         - 1.3071742531461249e-03
         - 2.1944539998857240e-01
         - -3.0514081221042436e-02
         - -1.4281117717984026e-02
         - -2.6264070844576676e-02
         - 8.5899042554878745e-03
         - -1.2036967490752936e-02
         - -4.4248062226869559e-05
         - 9.2313578321714853e-03
         - 4.4183115712936226e-02
         - 2.5870334901795366e-03
         - 8.9837364505292328e-03
         - -7.9562905984765467e-02
         - -7.3314776969237438e-02
         - -7.0177757778073488e-02
         - 2.8236102936620405e-01
         - -6.9606197261953481e-02
         - -2.6311756660151838e-02
         - -1.7739396939851595e-03
         - -4.4108876931284666e-02
         - -2.7254511559874597e-02
         - 9.6763873855929411e-03
         - 2.7384902238121081e-02
         - 5.9622817227311831e-02
         - 1.3838951844042300e-03
         - -1.8141335655133525e-02
         - 9.8297542807275831e-02
         - -1.8053500730439875e-02
         - -1.8126722306351876e-02
         - 2.5206156748825018e-03
         - -3.8041686750482705e-03
         - 1.9834791316882254e-02
         - -3.8579808823441961e-02
         - -9.9674552905980787e-03
         - 7.0494853420601813e-02
         - 3.1632264079393801e-03
         - -7.9423713126464315e-03
         - -1.8699176162312387e-02
         - -9.5709872912078053e-02
         - -5.1294260273122214e-02
         - 6.3623195319671658e-02
         - 2.3103474814074335e-02
         - 1.3454723735726493e-01
         - 1.4707895565376715e-02
         - 2.6360202423036789e-02
         - -2.2414902605134037e-02
         - 3.9880194796918955e-02
         - -4.0063289818477121e-02
         - 3.1601003545128292e-02
         - 1.8978869652406898e-02
         - 1.2741430891080899e-01
         - 1.0816300907159401e-01
         - -4.5061915902547392e-02
         - 7.0027460723697532e-03
         - 1.9567325070714861e-02
         - 3.1414331772885336e-02
         - -8.2817926534214492e-02
         - -4.8168296048970223e-02
         - -1.9101972456011015e-02
         - 2.2064056368327006e-02
         - 3.4291912007663759e-02
         - -4.3283393740053105e-02
         - 5.7616163547880082e-04
         - -1.5852138652876855e-02
         - 7.4265640215400136e-02
         - 5.5035739605325762e-02
         - -8.9786600077754204e-03
         - -5.4085014938955678e-02
         - 7.6251601615450679e-02
         - -3.5515623907713317e-02
         - -1.9493353304497904e-02
         - 1.4322301086317300e-02
         - 5.6455075845055172e-02
         - 1.1095336861465420e-01
         - -1.6110206139244167e-02
         - 2.1589539517724602e-03
         - -9.0379169872678564e-02
         - -3.7342796752862832e-02
         - -6.4159969956086527e-02
         - -9.1779775198275057e-02
         - 1.9390313423400397e-02
         - 1.4768375400947048e-01
         - -6.8832818827322589e-02
         - 6.3975761318671123e-02
         - 4.4385230574387598e-02
         - 6.4631335898204184e-03
         - 4.7838222016988168e-02
         - -1.2607363330464177e-02
         - -2.8579665043401037e-02
         - 6.7412726497672916e-03
         - 6.0114374182042865e-02
         - -1.5123188098183027e-02
         - 7.6103600266715282e-02
         - -9.9315538702228562e-02
         - 2.4364410936212402e-02
         - 1.7051684276405164e-02
         - -6.8208725344405530e-02
         - -4.5412902902727759e-02
         - 2.2510833929269770e-02
         - 3.7272210283365644e-02
         - 2.3480987808670320e-02
         - -2.1620291469840923e-02
         - 8.0877306310296881e-03
         - -2.4098278646444843e-02
         - -6.8007819822658758e-02
         - 2.1251171185301419e-02
         - -2.7866523719207392e-02
         - -2.1524987538157972e-02
         - 1.3901881414512635e-01
         - 1.4424266554080802e-02
         - 2.6759938805360163e-03
         - -3.0749217014814260e-02
         - 6.7693061729057289e-03
         - -8.3079334957195171e-04
         - -1.8693446859944809e-02
         - 8.2416866967207320e-02
         - 4.1288504428137552e-03
         - 7.6978455751063740e-02
         - 6.5101675913881274e-02
         - 7.2826387151957920e-04
         - 2.1855301330387492e-02
         - 1.5091527654152235e-02
         - 8.7907700266900892e-03
         - -3.4740214479183740e-02
         - 3.0334105343438965e-02
         - 5.1353817010785568e-03
         - 1.0889856957824764e-02
         - -4.7457830094305648e-03
         - -4.8508572353122802e-02
         - 3.3743187886449068e-02
         - -6.6382507394972798e-02
         - -3.7376797015627357e-03
         - -6.9469998490925167e-02
         - 4.1941285504961861e-03
         - 8.4368110844025582e-02
         - 1.6940133136315313e-02
         - 5.3756920838925418e-03
         - 4.6682042033943813e-02
         - -1.3814662029454586e-02
         - 6.8943648127941959e-02
         - 5.7465158177128599e-02
         - -1.0001939757881646e-01
         - -6.0546707251605790e-02
         - 1.3231527840192484e-01
         - 8.3115417312586079e-03
